0.087736115	0.09792808	-0.100676395	-0.08372836	0.10003698	-0.13027611	-0.023523943	0.1459018	-0.20557612	0.07816243	0.14860028	-0.12801258	-0.061911512	-0.08810955	-0.16663231	0.07020449
-0.049508344	1.5729299	-0.8902232	-1.2457951	-0.17535338	-1.1668426	-0.63024956	-0.7868631	-0.5308846	-0.77028626	0.9188231	0.7101753	0.7820414	0.9369239	-1.5730906	-0.94962084
-1.1353693	-0.35814512	1.1834321	0.8558545	-0.5494987	-0.60057414	-1.0917715	-1.0639238	0.58251166	-0.1129369	0.08256812	0.9948126	0.6720142	1.2961214	0.8498211	-0.07690274
0.32363516	-0.17145506	-0.020404099	0.07894307	0.23253077	0.5936253	0.50602746	0.13192686	0.3225953	-0.042803098	-0.29744884	-0.076655224	-0.16986692	-0.29959503	0.19465736	-0.023893895
-0.7747783	0.0013759036	-0.016837118	-0.13635662	-1.0836248	1.2552245	-0.18109964	-0.06559784	1.2699872	0.45462525	-1.359893	0.07544809	0.8780689	0.7752811	0.3873583	0.36624682
-1.6877279	-2.6276424	3.3201427	3.3278885	-0.5937427	-0.9861831	-1.7896652	-1.3811513	0.47104722	0.47963947	0.03961184	1.037673	0.24414839	1.2932937	2.6188262	0.9189407
-0.4215061	0.15206987	-0.041769866	-0.17355405	-0.3016358	-0.4147423	-0.4912364	0.25476432	-0.3218159	0.28511754	0.25979936	-0.2168906	0.19795367	0.10846278	-0.20227565	0.34654182
-0.3349871	-1.567045	1.3942745	1.5595267	-0.13286571	1.2683283	0.2593235	1.2713559	0.12602563	1.5018656	-1.1470646	-1.2163869	-0.74113935	-0.797454	1.750957	1.7655087
-0.08064802	-0.77733964	0.7360693	0.8159723	0.29562613	-0.13036881	0.011640203	0.33940166	-0.4561801	0.3548635	0.13391837	-0.436425	-0.61825174	-0.56317544	0.6478172	0.5039689
1.093231	-0.49431583	0.75042224	0.94518435	1.5911542	-1.8727328	0.3154903	-0.003267129	-2.2681448	-0.4334005	2.1547945	-0.18120033	-1.708859	-1.6145672	-0.18716523	-0.295213
0.07652974	-0.045010414	0.3206338	0.36072984	0.44116578	-0.9277178	-0.21982896	-0.12775531	-0.7775839	-0.16148208	0.94681317	0.07106423	-0.4589674	-0.19853422	-0.19473973	-0.039546173
-0.19103408	0.2100542	-0.42748025	-0.46149725	-0.3880332	0.15156277	-0.22815822	0.7760832	-0.34490243	0.63324696	-0.2647739	-0.70869964	0.090724476	-0.24062915	-0.27871203	0.5904414
0.7412249	-0.6395721	-0.3258751	0.100417	0.0849661	2.7504425	1.5635558	1.1397454	1.3115803	0.811168	-2.3482308	-0.9930477	-0.41104963	-0.74791557	0.7821259	0.76204306
0.5918551	0.6820572	-0.70315796	-0.64824796	0.2989475	-0.114521064	0.36900952	-0.38773924	-0.005326025	-0.6012974	0.28181413	0.38764283	0.12811328	0.14292063	-0.8261308	-0.6822071
0.27150124	1.6986895	-1.4436635	-1.6762804	-0.8392203	0.645553	0.23549776	-0.66079164	0.83037186	-0.852251	-0.7851644	0.79340637	1.478335	1.3393108	-1.5405577	-1.0820599
0.15468982	0.75677073	-0.9985459	-1.0236057	-0.49877208	0.7364879	0.2035771	0.32841167	0.43837282	0.11392049	-0.8090612	-0.2254097	0.54944026	0.22555247	-0.7607035	-0.036291778
-1.0431721	-3.0259366	3.102931	3.3303125	-0.26960343	-0.44499862	-1.0023981	-2.6290975	1.6758592	-0.56892395	-0.053057715	2.4636416	0.35709938	1.6313425	2.5563028	-0.42806095
1.5038759	0.43528453	-0.8453302	-0.59002054	0.81629413	0.5970896	1.343099	-0.32592666	0.34263292	-0.82042384	0.014096893	0.33680844	-0.29830143	-0.48368758	-0.6889953	-0.93572307
0.26441595	0.46867746	-0.46230087	-0.4531298	-0.021693364	0.19230835	0.11640845	-0.4298753	0.31564242	-0.39988405	-0.12273689	0.40439147	0.39079046	0.3351555	-0.4394994	-0.50189495
-0.05195288	0.25760683	-0.34644938	-0.338417	-0.25048164	0.48889673	0.005989437	0.2045024	0.3209893	0.11878845	-0.4496369	-0.08483293	0.30527106	0.14762075	-0.17122822	0.122236356
0.44697478	0.014347734	-0.13603732	-0.083519295	0.2462948	0.5623438	0.59849674	-0.35493702	0.5557893	-0.40768367	-0.2734759	0.36082086	0.010855756	0.03376525	0.048515934	-0.45976087
-1.452446	-1.160768	1.8771873	1.590549	-0.9776269	-0.34067485	-1.3883246	0.26712257	0.011128007	1.2712662	-0.28662795	-0.39029092	0.3216308	0.57456505	1.3736742	1.6735461
-0.09723747	0.040370226	0.18737596	0.1367092	0.21461476	-0.7792544	-0.3725731	-0.17373846	-0.6414589	-0.10333121	0.706394	0.063732184	-0.18862739	-0.095685616	-0.21452582	-0.087285295
-0.5448418	0.9831895	-0.9227359	-1.1083163	-0.65832436	-0.7132639	-0.7506537	1.3996868	-1.1298486	0.9287545	0.4268636	-1.1854774	0.44904283	-0.04063355	-1.095123	0.8777009
-0.35479462	0.17611305	-0.21179113	-0.30634424	-0.3650116	0.052398775	-0.31629893	0.23115894	0.02054554	0.2919711	-0.17713623	-0.26137534	0.28194928	0.16280015	-0.07194778	0.24286182
0.33786884	0.56723714	-0.83173484	-0.8242848	-0.3262107	0.70897704	0.43172055	0.14744955	0.49893206	-0.109042004	-0.7367999	-0.022777632	0.44114485	0.210436	-0.5176191	-0.25541824
-0.080961905	-0.63512856	0.52110475	0.6577879	-0.04570825	0.5336741	0.17944588	0.18140653	0.41577148	0.35428405	-0.4896605	-0.11048418	-0.21845797	-0.13953772	0.826837	0.39557135
-0.4924564	0.0019728122	0.090476155	-0.095355816	-0.6223731	0.6616578	-0.25156307	-0.1565542	0.7089543	0.21188705	-0.7225117	0.13046926	0.59307975	0.5704321	0.29522255	0.19629888
-2.4784088	2.2375095	-2.6724732	-2.7068965	-2.0843525	-2.5584798	-2.3212836	3.1265996	-2.7607172	2.4184523	2.9204304	-2.7752316	1.0838189	-0.43487236	-2.425897	2.7792137
-0.2474036	0.48783526	-0.3712554	-0.5123147	-0.43680564	0.021230873	-0.24905746	-0.14978282	0.2047391	-0.048456747	-0.16476116	0.1929561	0.5775025	0.5090414	-0.48071548	-0.18324542
0.124911524	-0.3326191	0.010485834	0.043403964	0.049170323	0.8391165	0.46840426	0.5512959	0.20471184	0.4438497	-0.7216604	-0.5031376	-0.224407	-0.38990432	0.32309574	0.43752408
-1.2321734	0.6694657	-1.3290995	-1.1764941	-1.1151065	-1.2279148	-1.2360941	2.8489075	-2.4351149	2.4201894	1.3360795	-2.5967677	-0.15200408	-1.1311917	-1.1122682	2.7354398
2.6562312	0.15852255	-1.2150847	-0.7280594	1.015072	2.6759098	2.4976792	0.8266474	1.1714067	-0.11619756	-2.7539575	-0.6085663	-0.26819596	-0.9981714	-0.26874366	-0.18734103
-0.028912809	-0.8521173	0.72263664	0.8047387	0.15786272	0.27577925	0.17812252	0.558087	-0.19172731	0.584313	-0.13975859	-0.5650651	-0.5262507	-0.50808406	0.7907725	0.68063825
0.17640926	0.07634877	-0.4897692	-0.42332074	-0.23819044	0.68878907	0.27575758	0.8087167	0.0023038704	0.5153499	-0.71349704	-0.7007571	-0.047252644	-0.38794044	-0.13171645	0.52334005
-0.26637	-0.87114626	1.3228891	1.2097806	0.30100527	-0.8862414	-0.3716534	-0.29845908	-0.5346323	-0.011814171	0.6710002	0.15981424	-0.5141926	-0.17056112	0.78340334	0.20117293
-2.1092148	-2.8392437	2.4316092	2.9843454	-1.970162	2.2255247	-2.3986712	-2.4300585	2.8450398	1.821641	-1.9527739	2.2328942	2.0023382	2.3979285	2.5518277	2.1995456
0.051674165	-0.14753808	0.0064799637	0.010312605	-0.128447	0.6814223	0.27364522	0.117183715	0.43817675	0.16529799	-0.5578662	-0.12346692	0.087936096	0.00014831348	0.29118118	0.09171048
-1.0641925	0.3062977	-0.16169703	-0.4925462	-1.1459379	0.13229035	-0.9074087	0.8572945	-0.059267182	1.1004478	-0.6968622	-0.7068804	0.78690374	0.4553392	-0.031716254	1.108569
0.7830339	0.89417577	-0.807088	-0.8687214	0.07699808	0.84465516	0.8998862	-0.857925	1.0442722	-1.0053713	-0.54664695	0.9265946	0.5960187	0.62733144	-0.7462479	-1.1603777
0.295028	0.32125503	-0.5060824	-0.4840176	-0.06194525	0.70330316	0.4124433	-0.01993269	0.49286753	-0.09676493	-0.5671928	0.035853643	0.20062144	0.086755246	-0.2689675	-0.1858171
-0.26147237	0.3544333	-0.49403375	-0.55664253	-0.392009	-0.031154087	-0.34589177	0.45905668	-0.16022967	0.34924963	-0.15472387	-0.31233668	0.27337784	0.112660185	-0.43390644	0.2746998
0.2797661	0.7654738	-0.65235233	-0.7538494	-0.23750529	0.28888622	0.22134414	-0.57544404	0.534546	-0.5679145	-0.26010206	0.63450134	0.6421745	0.7000909	-0.72617054	-0.6888139
0.7387891	0.5777487	-0.54961866	-0.5063401	0.36996925	-0.04367666	0.4498017	-0.51777714	0.112933844	-0.74469405	0.24070571	0.5630159	0.08862103	0.10999767	-0.7113818	-0.8141589
0.31922472	0.49449456	-0.6756744	-0.5790191	-0.02892644	0.3369558	0.29081973	-0.060240354	0.19312757	-0.22011197	-0.16193378	0.09653553	0.26436275	0.14219925	-0.5304229	-0.4030193
0.4592891	-0.49688703	0.076546505	0.18936619	0.21509828	1.2262435	0.8776365	0.49192965	0.5686336	0.297509	-0.9078839	-0.45131177	-0.3447722	-0.43227103	0.53715134	0.27911723
0.50353503	0.36652964	-0.6107584	-0.53165185	0.10110783	0.6622184	0.6363717	-0.08593227	0.60169554	-0.3167059	-0.45609125	0.22188494	0.21718909	0.10374752	-0.41066876	-0.39435384
1.2657557	-1.5112748	2.0843015	2.0500705	1.6132761	-1.2480689	1.1468588	-0.7567529	-1.3851635	-0.93944883	1.439163	0.6248313	-1.600405	-1.1851143	1.1966672	-0.8486489
1.3842144	-1.2251242	1.6953679	1.7217176	1.7131997	-1.8196378	0.9795619	-0.9710134	-1.7731181	-1.1501893	1.9025555	0.7948604	-1.8748299	-1.4000858	0.74787045	-1.0625275
0.1291266	-0.5629428	0.8563647	0.86655134	0.6089689	-1.0036374	-0.025117606	-0.80650115	-0.48717353	-0.62924385	0.81567276	0.6578897	-0.53716147	-0.17765352	0.4070187	-0.5223306
-0.54056597	-0.77435535	0.847773	0.8433666	-0.50923795	0.85875416	-0.21884255	-0.24645871	1.0441711	0.4409605	-0.90421253	0.14030989	0.358945	0.4788471	1.066504	0.45864543
-0.58576596	-0.020296203	-0.062168814	-0.19149975	-0.87149566	0.82504916	-0.22975332	0.3731684	0.69874495	0.59988296	-1.0552168	-0.25982645	0.6070003	0.38118032	0.23638198	0.5372718
0.99042654	0.7633579	-0.942597	-0.91362005	0.14834635	0.9634838	0.9885811	-0.2872	0.79343086	-0.6321739	-0.64516664	0.4111393	0.3181507	0.106654495	-0.80308276	-0.83709025
0.35116366	0.7218467	-0.9421344	-1.0145637	-0.2909783	0.6133833	0.34904468	0.26058376	0.28968984	-0.12024946	-0.6416559	-0.1810069	0.43036005	0.043501515	-0.75668985	-0.24309196
-1.8381234	-2.1138153	2.0099113	2.3393497	-1.6554652	1.6638292	-2.0401313	-1.3512993	2.1198583	1.8437468	-1.6422074	1.1451731	1.7208915	1.9565314	2.071056	2.1326928
0.31878668	0.054303568	0.0031305358	-0.0018958328	0.23821972	0.28157145	0.52311933	-0.7971216	0.5655052	-0.6729828	-0.02736585	0.7451816	0.062324695	0.24015291	0.027947614	-0.72137564
-0.41548544	-0.51164794	0.5861132	0.5054118	-0.22701858	0.14514536	-0.22639222	-0.11814189	0.23121801	0.19901322	-0.26042274	0.03387333	0.044290457	0.17761064	0.5845612	0.27243844
0.7589261	-0.15489323	0.2770123	0.4471386	0.93996084	-1.2162833	0.12751922	-0.002190386	-1.512872	-0.32108063	1.3791995	-0.0658828	-1.0403769	-1.0396719	-0.3787622	-0.23184212
-1.7760152	-2.4301538	2.092176	2.5346892	-1.5625719	1.520946	-2.0870445	-2.0246959	2.3397617	1.4607009	-1.5644513	1.9193126	1.6160065	2.0549054	2.133164	1.7647202
0.36984205	-0.456405	0.32920757	0.49675095	0.39207882	0.3455856	0.5694849	-0.2103562	0.3402201	-0.25078803	-0.059839725	0.12434531	-0.28503013	-0.17775512	0.45600808	-0.15955909
1.0398859	1.9034456	-1.777919	-1.9869257	-1.1395028	1.3907766	0.97920215	-1.0690697	1.4704509	-1.2134302	-1.5672672	1.0865383	1.6829827	1.8011537	-1.9082589	-1.5351187
-1.5748594	1.1355772	-1.1825079	-1.3857973	-1.2098994	-1.8741477	-1.7161696	2.407536	-2.3529487	2.018122	1.7613698	-2.2227829	0.13291748	-0.776089	-1.4227709	2.2862618
2.619442	-0.87278223	-0.18585393	0.36412454	1.7251595	2.1838474	2.6058993	1.1242261	0.56367224	0.47059765	-1.7487648	-1.0094552	-1.1148643	-1.4886719	0.80798	0.5162003
0.315813	1.5621145	-1.4996631	-1.6348875	-0.78902555	0.17253867	-0.02296138	-0.012273593	0.09659243	-0.38442367	-0.35859275	0.1543515	1.1203376	0.94839007	-1.6755027	-0.62298816
-0.16182058	0.7756208	-0.7610312	-0.8789485	-0.8276174	0.76672995	0.04385999	-0.43946174	0.86990464	-0.28796124	-0.94800603	0.49240774	1.0937054	1.0293725	-0.5510563	-0.46766216
0.3565729	1.185303	-1.0172331	-1.216939	-0.87384665	1.845263	0.91971076	-2.0985298	2.2619662	-1.1950758	-1.5774347	1.8320284	1.693773	2.0627317	-0.8550155	-1.3585017
0.18470302	0.26907352	-0.47582072	-0.43463033	-0.12974536	0.43668926	0.26548	0.1669282	0.17619573	0.0067400597	-0.3774531	-0.12738402	0.13139088	-0.023049897	-0.30336133	-0.073247105
2.1061773	-1.8327849	2.2008252	2.3615444	2.196312	-1.5227824	2.1149755	-1.1920749	-1.7998744	-1.4423071	1.7759709	0.98411673	-2.2014174	-1.6539309	1.5236647	-1.4059
-0.355764	-0.4519044	0.6008153	0.43289933	0.06856317	-0.7999639	-0.5530921	1.085296	-1.4035314	0.89002806	0.7285485	-1.0911752	-0.68167055	-0.8458926	0.20625116	1.1665683
0.45630544	-0.102316536	0.14660533	0.23290136	0.46080318	-0.1966809	0.35548168	-0.5931235	0.070796534	-0.56075746	0.33123034	0.5979611	-0.20314944	-0.026758429	-0.023237335	-0.5599143
-0.52178615	-0.7778137	0.94559264	0.904595	-0.40242112	0.35077626	-0.3246857	-0.8279395	0.9791721	-0.12545222	-0.42460862	0.7697404	0.3780214	0.72080415	0.98349935	-0.014515963
0.73194575	1.0717797	-1.4048591	-1.4530398	-0.6236284	0.94528973	0.45970094	0.33583748	0.4475046	-0.15387599	-1.1309266	-0.21216717	0.67455214	0.18817407	-1.2149733	-0.36750516
0.12101004	-0.0737852	0.053969108	0.017202599	0.056333724	0.03771356	0.14401445	-0.26142028	0.15460332	-0.17046611	-0.0687878	0.20617422	-0.015599738	0.11176363	0.06880833	-0.24940263
0.06250331	0.36883643	-0.6474124	-0.5471162	-0.22302	0.30378497	0.029195862	0.8372607	-0.3059944	0.53483754	-0.41686	-0.6653056	0.07210772	-0.30755123	-0.42904627	0.48032728
-1.0483632	-0.71661216	1.1215706	0.9505718	-0.7489564	-0.22294733	-1.0889891	-0.53183174	0.53487533	0.47867358	-0.30168545	0.42293653	0.6583207	1.0568267	0.95132816	0.6514719
0.81663156	0.26813543	-0.4602226	-0.40624124	0.3844058	0.32405493	0.77184916	-0.2519382	0.27539328	-0.5698491	-0.057901964	0.21397337	-0.036167637	-0.1722022	-0.467758	-0.5609921
-0.15121399	-0.3463817	0.4135263	0.4092096	0.030876733	0.010395956	-0.07526939	0.087081954	-0.10271756	0.21292675	-0.04733776	-0.09591717	-0.16735223	-0.14472939	0.44053578	0.24887557
0.2520124	-1.3405714	1.026512	1.3258555	0.37966225	1.5533543	0.8422567	0.9532336	0.3457505	1.0327135	-1.2017858	-0.9469207	-0.82383096	-0.7869485	1.5734317	1.2433063
-1.6335363	-1.7129253	1.6157596	1.8487496	-1.579151	1.5509521	-1.9458822	-1.8284829	2.089628	1.4680638	-1.4939015	1.6220335	1.6968474	1.9907126	1.6942105	1.6307313
0.05420231	0.6469194	-0.7630946	-0.8303309	-0.5330131	0.76679987	0.19219464	0.07845664	0.6597221	-0.08096649	-0.7934276	0.035582785	0.573761	0.42235154	-0.5418629	-0.19093092
0.51355886	1.3978199	-1.3254658	-1.4216604	-0.40137845	0.31129107	0.2307129	-0.19935526	0.30516025	-0.49483	-0.26467875	0.31789932	0.79961026	0.5575362	-1.4912847	-0.69160193
-1.2717695	-1.8608748	1.9531581	2.0795786	-0.7666546	0.025639711	-1.3571496	-1.9945904	1.4633034	0.13158885	-0.5316966	1.7781389	0.89092517	1.611947	1.7177637	0.33313742
0.437758	-0.20912813	0.6353817	0.6574367	0.6894873	-1.0019839	0.27777502	-1.0713823	-0.3051869	-0.93531835	0.95793855	1.0316576	-0.49404773	0.0075455187	0.039794438	-0.97946686
0.23042616	0.42162576	-0.3544584	-0.4252063	-0.009962265	0.18501009	0.29679707	-0.40035152	0.3247805	-0.44590014	-0.13530801	0.40852696	0.26592258	0.24645814	-0.42903584	-0.5841429
0.37975958	-1.0455651	1.1698074	1.2694262	0.7353216	-0.19471179	0.4477863	0.0058661373	-0.36219484	-0.076896176	0.40054113	-0.004693913	-0.8297842	-0.660986	0.9173824	0.08386827
0.061582997	-0.42241558	0.5942957	0.6445798	0.23494612	-0.16954373	0.18841507	-0.93576425	0.33264706	-0.60458606	0.20773636	0.8432544	-0.11881765	0.31332055	0.49033746	-0.59368134
1.8229613	-1.7583183	1.346506	1.7313092	1.7134678	2.3243601	1.9429467	2.0162618	-1.0275397	1.8222755	-1.9542093	-1.8554784	-1.6760622	-1.8035879	1.9834329	2.0550935
-1.0026776	0.5684001	-0.14423695	-0.53871584	-1.2960495	0.15986593	-0.96571064	0.04069886	0.39549702	0.6136407	-0.7692192	0.008940705	1.282065	1.2257836	-0.16045266	0.6210975
0.9379286	-0.106246635	-0.028685953	0.116707236	0.7004053	0.3537843	1.0640448	-0.4192799	0.39038363	-0.62113875	0.017870815	0.37949273	-0.44262794	-0.28520235	0.026949782	-0.7432643
0.19224921	-0.74558985	1.123166	1.1200862	0.76341856	-1.3950526	-0.10666267	-0.8228864	-0.826571	-0.60091704	1.1793978	0.7014898	-0.7969374	-0.31292328	0.46854764	-0.5168214
0.04758229	-0.7188513	0.47236863	0.66960025	0.12447479	0.8382545	0.4035192	0.7132292	0.058137286	0.70651644	-0.72353405	-0.7162186	-0.4633184	-0.53658724	0.8576287	0.8276233
2.2475698	0.07013217	-0.94457483	-0.6084974	0.9547755	2.142765	2.1423593	0.6472394	1.1080059	-0.034829754	-2.2189236	-0.5208063	-0.23167397	-0.7773388	-0.19627112	-0.14656664
0.42461175	-0.08677803	-0.11814497	0.012437275	0.20965227	0.7050447	0.612412	0.2419253	0.36519942	0.06679466	-0.5021037	-0.19334622	-0.22163637	-0.30082917	0.09792542	0.021325
-0.769568	0.37655514	-0.8898545	-0.7548537	-0.5972383	-0.8114943	-0.8565682	2.342473	-1.9102697	1.895815	0.8908419	-2.1367536	-0.4965145	-1.1648422	-0.7520766	2.058487
-0.36710435	-0.6002249	0.87784857	0.8582144	0.009403774	-0.2105802	-0.27555716	-0.5768845	0.30079427	-0.078132	0.10533138	0.4234721	0.016702214	0.333297	0.67795163	0.0047811377
-1.4690268	-0.6419758	1.0857408	0.83826077	-1.262524	0.2883838	-1.611651	-0.6735006	0.945538	1.0343674	-0.8804745	0.64140064	1.4030752	1.6526332	0.9865728	1.1442777
0.37976527	0.21330538	-0.40934	-0.34920016	0.08314674	0.4475188	0.4113154	0.012948651	0.30286488	-0.08386942	-0.2504778	-0.0571127	0.0603305	-0.05502843	-0.30188456	-0.13248281
0.22043952	0.4341753	-0.51835513	-0.48957348	0.009745021	-0.12783282	0.088323094	0.24914508	-0.26148304	0.0012716535	0.1508449	-0.2418431	0.054422636	-0.13031007	-0.51757747	-0.09984125
-0.22877611	-0.3867714	0.3947701	0.36303967	-0.15035756	0.25649178	-0.07717619	-0.07881771	0.2636183	0.17055458	-0.29659566	0.0060338327	0.09860042	0.13935636	0.42356327	0.20323254
-1.2494787	-1.4334788	1.8141464	1.7224166	-0.87139463	0.19035622	-1.325544	-1.3638974	1.2995778	0.32050467	-0.6923725	1.2809553	0.88963336	1.420918	1.6718014	0.41832948
0.29735044	1.40244	-1.234271	-1.5084004	-1.2028344	0.69534737	0.14158237	-0.36035866	0.63109094	-0.52645934	-0.9050989	0.43723625	1.3523476	1.2590716	-1.4029256	-0.70869404
0.39920232	0.008577913	0.015922287	0.05236739	0.3238516	0.14631669	0.48640335	-0.44932273	0.31210437	-0.5015927	0.081431895	0.45852053	-0.08589899	0.06706255	-0.02605837	-0.5717669
0.3401602	0.08727624	-0.2430579	-0.08613589	0.26614305	0.014682467	0.30865505	0.026422348	-0.0139937	-0.22823681	0.13262251	-0.01662732	-0.16546202	-0.23185967	-0.21789841	-0.20560066
-0.04560351	0.18763715	-0.2112228	-0.26793596	-0.17117675	0.4527219	0.1523428	-0.0015394972	0.40056217	0.050585527	-0.38631964	0.046000525	0.2498565	0.14121373	-0.095795	-0.0982034
1.2551483	-1.2782981	1.6829748	1.6277503	1.473265	-1.7784246	1.1821266	-1.3583914	-1.7170814	-1.3906734	1.5851973	1.2168818	-1.525462	-1.1242385	0.71736175	-1.5727723
0.38364613	0.021119025	0.69512147	0.47018287	0.7443111	-1.9647082	-0.29961595	-0.48301834	-1.7264571	-0.67641586	1.8715163	0.3708674	-0.78425807	-0.44728428	-0.53898734	-0.6318431
1.8142513	-1.2444981	0.5020408	1.098723	1.5514251	1.9392071	1.9977179	1.722184	-0.61079156	1.3168491	-1.3530545	-1.5801663	-1.4440017	-1.6877457	1.3727441	1.4252086
-0.296904	0.7988876	-0.5763051	-0.8236759	-0.7492701	0.12166783	-0.27670515	-0.21553181	0.32780823	-0.07066849	-0.44662035	0.2339437	0.90538	0.94189304	-0.5527764	-0.26108602
1.1936561	-2.1184902	2.0557644	2.142861	1.4778907	-2.1443563	1.2327724	-2.202026	-1.1166372	-1.8784221	1.7430727	2.066115	-1.5076805	-0.65793043	1.0920256	-2.1857164
0.114396945	-1.2097508	0.8847233	1.1570671	0.2371092	1.2590978	0.5864475	1.3182186	-0.088573374	1.4043041	-0.99929357	-1.2508678	-0.8086651	-0.9417606	1.3191692	1.6219416
0.3517483	0.9067076	-0.8629718	-1.0024406	-0.480257	0.9021561	0.5275411	-0.8364751	1.0732958	-0.6999955	-0.85809445	0.87182826	0.9958019	0.9456877	-0.7640763	-0.9202907
0.43494564	-0.9358393	0.8308471	1.0342883	0.65090364	0.15822233	0.64719754	-0.39986697	0.244479	-0.26971194	0.12457321	0.26693928	-0.63704836	-0.3524378	0.91538393	-0.1796928
-0.65074205	0.19783345	0.21605863	0.05642931	-0.33369106	-0.7363618	-0.8247582	0.09606105	-0.5037446	0.31678247	0.4654957	-0.105270386	0.25970972	0.37253064	-0.14594285	0.32838148
0.25977063	0.7157432	-0.29456684	-0.43853515	0.016192414	-0.22438611	0.07000283	-1.2097263	0.46383289	-0.9971443	0.27533087	1.2199432	0.59019643	1.0129998	-0.5552795	-1.1753256
0.7280062	-0.49817765	0.88815814	0.9658134	1.0214653	-1.113628	0.68917197	-1.3427938	-0.3475509	-1.2052914	1.0798484	1.2180804	-0.7657487	-0.21832663	0.32702416	-1.3203505
-1.1739881	-0.15931414	0.4061197	0.115531996	-1.5844322	1.2726934	-0.9264772	-0.46786615	1.5322032	0.7939371	-1.6298255	0.50397307	1.518209	1.5050118	0.65758467	0.67769635
0.23015259	0.8412457	-0.7414554	-0.809039	-0.43877396	0.6334053	0.3309546	-0.70262474	0.86221397	-0.6205204	-0.6304468	0.6930369	0.8374076	0.81950927	-0.71109015	-0.7611635
0.0067834137	0.0015951525	0.27873102	0.21815218	0.2754898	-0.7161666	-0.14987049	-0.28354838	-0.4182351	-0.31509462	0.68294185	0.22780721	-0.19979581	-0.051661428	-0.08327964	-0.27791572
0.36861408	-1.2911608	1.2546448	1.3892349	0.5367888	0.6297979	0.76237714	0.45082515	0.07465823	0.3838565	-0.225471	-0.40671715	-0.84042245	-0.7123944	1.3201697	0.54433346
-0.37456968	0.60435206	-0.5651059	-0.6176337	-0.24711074	-0.9608644	-0.5977191	0.9823153	-1.1899248	0.56654614	0.8201725	-0.8926333	-0.07573076	-0.47060814	-0.8234187	0.7057596
0.3746861	-0.30244362	0.62111795	0.73937887	0.5689772	-0.98889875	0.24081038	-1.5099139	0.069446556	-1.0942074	0.9143134	1.4475906	-0.23922545	0.45872393	0.16700363	-1.1589788
0.29334462	-0.52455616	0.41835073	0.51819265	0.25733492	0.49977	0.67967445	-0.3353318	0.6537857	-0.22812378	-0.26229993	0.315659	-0.28215215	-0.0797103	0.5657808	-0.28768638
1.4066195	-1.4055654	1.3948658	1.5465469	1.3746033	1.3292768	1.6027668	1.4221214	-1.3093852	1.1505604	-0.67253304	-1.2907935	-1.5422964	-1.6125673	1.523571	1.3591558
-0.41036886	0.09818752	-0.009896516	-0.14154807	-0.6249748	0.65954846	-0.2675554	-0.3921386	0.7741166	0.056597598	-0.8110604	0.35308355	0.7273879	0.7869531	0.12333133	0.0074296086
-0.14700013	-0.7217822	0.61571795	0.7535348	0.015278726	0.4234126	0.15298179	0.17853197	0.33288172	0.36698467	-0.398692	-0.1288528	-0.1853716	-0.118009344	0.81571555	0.4894875
0.86847645	-0.9203152	0.8257512	1.0743915	1.0015179	0.059909526	0.97441417	0.069102675	-0.246524	-0.1350161	0.28767896	-0.111002274	-0.93291605	-0.85581	0.8604486	-0.07392589
1.1939296	-1.1013936	0.65880907	0.91613144	1.1949075	1.3278996	1.0955313	2.0432727	-1.305644	1.8176367	-1.4431756	-1.8881023	-1.3603728	-1.6954366	1.0558738	1.9819939
0.3013302	-0.5182239	0.5986366	0.6466791	0.5882357	-0.4745036	0.13097131	0.47667944	-1.0287149	0.2549193	0.6002531	-0.5249886	-0.82250565	-0.8644266	0.35287517	0.4120552
0.19656348	-0.54716814	0.67927414	0.68747056	0.53167915	-0.47251007	0.11385838	0.68033993	-1.1906319	0.39092866	0.63785106	-0.68828064	-0.8769858	-0.9240248	0.32658637	0.6326162
-0.22058377	0.5566757	-0.63875675	-0.7777821	-0.5764408	0.19212039	-0.22917497	0.4956064	-0.03494643	0.3507107	-0.3897845	-0.43122235	0.4766193	0.10744029	-0.5660181	0.27471817
1.2156326	-1.0369812	1.3487289	1.3954731	1.4102881	-1.0017468	0.92652905	-0.28468204	-1.6165339	-0.60500723	1.2127342	0.18694898	-1.4987235	-1.2337549	0.6768834	-0.5761969
1.9110721	-1.3777977	1.2221367	1.452741	1.8195248	1.8705279	1.7940408	1.8162812	-1.8576891	1.5582535	-1.7357789	-1.5987285	-1.4967018	-1.6271265	1.5874327	1.7425772
-0.2271626	-1.2980793	1.303512	1.4681444	-0.0926283	1.4485754	0.37646282	0.8377097	0.61955476	1.1992238	-1.1878098	-0.8677276	-0.521023	-0.47239253	1.5114639	1.3980423
-0.14918838	-1.1413678	1.2133399	1.3658853	0.14647974	-0.6826244	-0.18936218	-1.3728086	0.38428065	-0.620434	0.28014097	1.3328023	-0.048522037	0.6274434	0.815103	-0.6446914
-0.53613687	0.41003856	-0.3234347	-0.42463118	-0.2839187	-1.0520698	-0.75354356	1.1902889	-1.3448952	0.8902907	0.8710793	-1.1436641	-0.13183483	-0.5801891	-0.5988743	1.0521502
-0.3047609	0.54799056	-0.5189982	-0.67633635	-0.47989458	-0.19150195	-0.43308395	0.45467517	-0.32892755	0.32655376	0.100844525	-0.34401906	0.3969905	0.15313444	-0.6017346	0.23085506
0.64133054	-1.1003752	1.5816131	1.5219297	1.0172942	-1.3782036	0.5105386	-1.085301	-0.7312873	-0.9898908	1.2386365	0.9029037	-1.0642861	-0.5184652	0.7974588	-1.035486
-0.33933815	-1.2821697	1.4091305	1.4758878	-0.08391864	0.4920714	-0.03372814	-0.29934797	0.8912122	0.20824572	-0.42878276	0.20185308	-0.08944792	0.15696147	1.39978	0.41319403
0.45041403	0.30765325	-0.74252343	-0.6701599	-0.20636949	0.6961363	0.41660044	0.567292	0.14444451	0.19911629	-0.8352953	-0.4105416	0.10776592	-0.29129016	-0.40857837	0.14993198
-0.24325894	-0.69886863	0.6350461	0.6573263	-0.056387212	0.3100053	-0.0020910809	0.4247117	0.041472103	0.5241388	-0.31684616	-0.4123076	-0.23874259	-0.22585674	0.7491441	0.61619794
0.27123046	0.7615707	-0.6613948	-0.72467583	-0.26295814	0.5502058	0.34327006	-0.7680795	0.81795275	-0.583768	-0.47901282	0.71998966	0.7241342	0.8048065	-0.5960727	-0.7643136
-0.48134065	0.7153025	-0.44987833	-0.66056687	-1.3856505	1.696377	0.01619374	-1.8651001	2.0346296	-0.5306054	-1.723764	1.5798161	1.7790853	2.009422	-0.20160785	-0.6587272
0.32347304	-0.21212938	0.26978707	0.33369404	0.3033606	-0.05747134	0.49271658	-0.9547272	0.659909	-0.8273749	0.1406652	0.9015564	-0.0059215287	0.26667652	0.27138868	-0.7707812
-0.41574192	-0.027669383	0.16131976	0.06817081	-0.3505276	0.13352261	-0.31295735	0.0796086	0.13195327	0.38428116	-0.2537644	-0.09946341	0.2691097	0.26784268	0.19482553	0.32517803
0.26204124	0.27736062	-0.23932965	-0.21749194	0.08418318	0.23914109	0.237132	-0.44477218	0.4203153	-0.4695476	-0.085690305	0.43825126	0.2321455	0.2299775	-0.23668814	-0.48464596
0.2114268	1.0664326	-1.0007184	-1.1170018	-0.17111349	-0.28846332	-0.08293594	0.0512634	-0.17059804	-0.28220803	0.33196703	0.03687616	0.55209345	0.37747672	-1.2280749	-0.36581063
0.6051454	-0.84885347	0.78387016	0.9704593	0.8037485	-0.09697905	0.74285704	-0.08405413	-0.305846	-0.16892429	0.38048068	-0.034880027	-0.87469697	-0.7297541	0.7714538	-0.020940619
0.818598	-1.8654027	1.8526112	1.9640659	1.2186795	-1.8508389	0.8848374	-2.018605	-0.7480147	-1.5564549	1.438008	1.829092	-1.2701964	-0.37872535	0.9624855	-1.804752
0.23104121	-0.3887482	0.138066	0.32983527	0.28943402	0.38399482	0.2652062	0.81267214	-0.34963703	0.54690844	-0.24489017	-0.7389807	-0.48010963	-0.7200444	0.3844759	0.65960306
-0.023056477	0.7058175	-0.6912591	-0.8164203	-0.8031193	0.8522005	0.10380142	-0.19401789	0.7379052	-0.16916521	-1.0477405	0.21072273	0.8553074	0.7138006	-0.578347	-0.2701412
0.6345853	0.91641724	-0.8768621	-0.97342724	-0.108634375	0.7425351	0.79468334	-0.73878497	1.0004497	-0.89950216	-0.6198703	0.80530816	0.6412596	0.6432342	-0.8927546	-1.0438546
0.026161006	0.52931404	-0.16267493	-0.19784518	0.2180564	-1.2855247	-0.45866433	-0.08223314	-0.9549778	-0.29464775	1.2263486	0.06072179	-0.22840872	-0.14967251	-0.827936	-0.1987929
0.115854256	-0.6417003	0.42392	0.5924051	0.06253064	0.9058968	0.58187306	-0.058504645	0.78780514	0.07089331	-0.63650423	0.03593245	-0.18832786	-0.100317456	0.73511314	0.09391251
1.559662	-1.5377692	1.9421842	2.0069122	1.6881533	-0.43284708	1.7516989	-0.15715705	-1.361146	-0.61313194	0.9714747	0.0607549	-1.6399109	-1.3402537	1.4740804	-0.43455002
0.71910584	0.9106119	-0.7842806	-0.88340855	0.018421303	0.4728247	0.72945654	-1.0890855	0.9000887	-0.96662503	-0.27573398	1.0346664	0.7094019	0.8216387	-0.9880023	-1.1654165
-0.2304093	0.5225311	-0.2663479	-0.31038025	-0.2545584	-0.33778098	-0.34457773	-0.48784918	0.058654983	-0.2576159	0.24248625	0.53127205	0.45932266	0.6635156	-0.4672649	-0.41017032
0.2357349	1.0403118	-1.0103238	-1.2062634	-0.851381	0.6089483	0.17952244	-0.10513496	0.64275354	-0.32759786	-0.7905148	0.22758587	0.9499549	0.7211754	-1.0649468	-0.5155042
-0.72487897	0.07834114	0.22262135	0.07217839	-0.65969265	-0.29072812	-0.8422946	-0.008051963	0.05584382	0.37132296	-0.08415596	0.078298874	0.61907077	0.6353713	0.11083491	0.40211156
2.077979	-1.4501362	1.1592814	1.3755065	2.0194025	2.0936887	2.0180006	2.0856874	-1.9826083	1.7287643	-1.9988525	-1.8823841	-1.6594229	-1.8206527	1.6533942	1.9039294
1.4465533	1.2471354	-1.4319384	-1.5179226	-0.2893164	1.2887692	1.2994589	-0.37999955	1.1485918	-0.937037	-1.3689073	0.5183779	0.7715745	0.48750848	-1.3975803	-1.063844
-0.18390393	-0.4303964	0.21242703	0.33488002	-0.29380015	0.99768364	0.17602625	0.5025595	0.48131534	0.6845723	-0.88108224	-0.46014184	0.026851801	-0.11811263	0.5866852	0.6520717
0.19162115	0.090759195	-0.00944633	0.107865274	0.44998947	-0.9151402	-0.12560858	-0.092339545	-0.8305705	-0.28857708	0.8762916	0.05738298	-0.3817342	-0.30696875	-0.3863625	-0.24035485
0.5646207	1.1397457	-1.0947254	-1.1944848	-0.4710365	0.89339477	0.6052321	-0.8371835	1.0505776	-0.871486	-0.8820115	0.8157015	0.9952686	1.1022413	-1.1237593	-0.9759767
0.09020736	0.6810478	-0.7899788	-0.84561443	-0.38488653	0.27347976	-0.014673014	0.0654568	0.20281608	-0.068575725	-0.2921012	-0.03902554	0.47751406	0.2786527	-0.75293124	-0.09847304
2.1025028	1.1227925	-0.98561174	-0.94094825	0.81942695	0.52737075	2.0091615	-1.8156625	1.0714358	-1.9651526	0.07450593	1.6755229	0.4180349	0.77732533	-1.4666786	-2.0976286
0.15063325	0.74828714	-0.73119336	-0.8694224	-0.28854832	0.10056585	-0.0025584665	0.0050316444	0.016833939	-0.16667393	-0.07368756	0.053233035	0.5358638	0.4284139	-0.7708115	-0.36231357
-0.84815276	-1.361837	1.4778038	1.5509813	-0.4573153	0.2167864	-0.7079084	-0.98703825	0.9934224	0.18769607	-0.50811416	0.7940076	0.38483804	0.8478366	1.3615506	0.39707872
0.6339026	1.0664148	-0.95972675	-1.0481597	-0.57664365	1.1717732	0.84318566	-1.4085562	1.419977	-1.1119164	-1.0703201	1.2865708	1.1739991	1.4621325	-0.99548507	-1.1918486
-1.3960376	-1.1495994	1.2469954	1.2490095	-1.3104271	0.69381344	-1.5736307	-0.95335364	1.2235155	1.1658076	-1.0935199	0.83450884	1.3657113	1.5712664	1.219459	1.3394979
0.17264566	0.6273018	-0.7297721	-0.84144163	-0.40286452	0.4596945	0.19091022	0.2862301	0.2415216	0.011206219	-0.47704464	-0.17504236	0.44064075	0.1362296	-0.6376356	-0.069849335
1.1054902	0.8174165	-1.0296316	-0.99002	0.036136918	1.0500667	1.0955265	-0.28366578	0.88154006	-0.67898715	-0.84187764	0.38834178	0.46780995	0.17869012	-0.85925156	-0.79673934
1.2643518	0.742907	-0.5271597	-0.5563834	0.5402796	0.29540622	1.3322452	-1.7969471	0.95764303	-1.5875856	0.13011648	1.6675873	0.31938064	0.8363385	-0.8207601	-1.788831
1.3914263	-1.4584211	1.2434767	1.4236	1.370404	1.4907869	1.4922132	1.7918272	-1.2060637	1.4952528	-1.0961467	-1.6590292	-1.5408062	-1.6174086	1.4777313	1.6931542
1.3772464	-1.565084	1.9166718	1.9026982	1.596467	-2.1147425	1.0843445	-1.8243846	-1.6185615	-1.6493602	1.8561581	1.6276721	-1.6562204	-1.3018857	0.8543504	-1.8888334
-0.19443953	-0.13258676	0.27717885	0.19618069	0.08459734	-0.59298915	-0.3732633	0.550598	-0.8925025	0.49187174	0.49421227	-0.53568226	-0.40156808	-0.53005415	0.024156056	0.5374507
-0.7638707	-0.60892016	0.62958467	0.57427055	-0.7542308	1.0619831	-0.45244297	0.49053586	0.75120914	1.0991706	-1.0905417	-0.38340822	0.4201592	0.3155204	0.9082297	1.0395846
0.7162382	-1.1378298	1.2721483	1.4753549	0.9579148	-0.577506	0.96286935	-0.87681663	-0.040389985	-0.8219777	0.72459793	0.7199478	-0.9266098	-0.38127148	1.0000057	-0.72486204
0.11678569	0.2295908	-0.24620795	-0.18693097	-0.026565272	0.16217573	0.1247783	-0.21212046	0.21179928	-0.24260788	-0.052320786	0.19496112	0.1295617	0.1825044	-0.2014585	-0.303405
1.127052	-1.2906996	1.1272928	1.4420373	1.2665892	0.9077803	1.3972445	1.0748788	-1.0107571	0.7346328	-0.32336688	-0.9994167	-1.4104934	-1.3706326	1.273373	0.9243825
0.6522958	-0.002221736	-0.027317055	0.09358278	0.5854064	-0.41758835	0.45884666	-0.4970183	-0.18008605	-0.6481674	0.559637	0.41368905	-0.42577258	-0.27866662	-0.23683152	-0.6489383
-0.65038747	-0.33377585	0.21967693	0.21053314	-0.6410939	0.47496593	-0.39563036	1.0263058	-0.15242678	1.316259	-0.86303496	-0.91924405	-0.0007556693	-0.1961881	0.4403433	1.365671
0.80670947	-0.9746355	0.70162785	0.9199402	1.0079283	0.4645737	0.72313064	1.079192	-0.9977549	0.7888543	-0.055437207	-1.0272529	-1.1787846	-1.2055027	0.8198802	0.93618065
-0.31680942	-0.07333097	0.37323168	0.28151593	-0.0978401	-0.507101	-0.3846441	-0.5816998	0.07538048	-0.23476602	0.34842172	0.474453	0.15816987	0.4510064	0.14986771	-0.22131705
0.44041866	0.06511384	-0.20207688	-0.1334112	0.24542397	0.43336564	0.6513735	-0.39039707	0.52112514	-0.41147143	-0.21849641	0.36109477	-0.0063955816	-0.004646087	-0.06848394	-0.508054
0.96379316	-1.0743917	1.0487027	1.237474	1.1281409	-0.31862745	1.1348498	-0.605302	-0.12680098	-0.7071017	0.5949736	0.5377258	-0.9884914	-0.7272665	0.9115885	-0.6293664
-0.58925444	-1.2878201	1.2665027	1.445475	-0.4142621	0.73782825	-0.3767956	0.06051436	0.6335168	0.71737844	-0.80372673	-0.12987655	0.02144015	0.26528487	1.3777165	0.97527295
0.6174765	-0.4437705	-0.058222484	0.27081937	0.5486873	0.65902436	0.7262031	1.0541506	-0.3856807	0.6701448	-0.3445982	-0.9232623	-0.7057098	-0.97986585	0.34811294	0.6912382
1.4204175	1.4225333	-1.4071077	-1.5627002	-0.87610114	1.523637	1.4407586	-1.3211272	1.5378065	-1.3323432	-1.5151922	1.1548618	1.2270464	1.5011647	-1.5261467	-1.4326792
0.1160065	0.20177819	0.040189747	-0.07577582	0.11242083	-0.14990701	0.07771323	-0.7459448	0.3435696	-0.6031971	0.1679502	0.68918127	0.23127294	0.37160107	-0.08290298	-0.6476559
0.22666349	0.43839404	-0.22599785	-0.22774266	0.13379884	-0.2291171	0.17720808	-0.84900045	0.29187036	-0.7410577	0.27348357	0.79562193	0.33075628	0.58048254	-0.42355552	-0.8875811
0.03362587	-0.0659523	-0.090165086	0.02709229	0.021284673	0.020485649	0.041394822	0.3595943	-0.14264582	0.25929925	-0.01815346	-0.3599316	-0.18470383	-0.21094164	0.0130038	0.26899967
0.062615424	-0.6587197	1.030557	1.0217206	0.3589399	-0.64810354	0.08567848	-1.3944466	0.36984208	-0.79618895	0.5915236	1.3182212	-0.21592648	0.5483761	0.6437211	-0.8239826
0.13290456	-0.8797786	0.71202207	0.8362824	0.17516403	0.8660649	0.42063725	0.9527225	-0.21191464	1.0308717	-0.69200003	-0.88134485	-0.58993244	-0.71726406	0.9647462	1.1779996
-0.06982692	0.046655037	0.07883373	0.028536817	0.0031793702	-0.06956422	-0.007405661	-0.28444102	0.12701663	-0.103614785	0.12091488	0.17227739	0.040475845	0.22691818	0.018163137	-0.18381429
0.18173108	0.05260105	-0.16588302	-0.161847	0.0984725	0.2179794	0.1829722	0.2798639	-0.0029689528	0.08309465	-0.15324304	-0.25528547	-0.13976328	-0.2030485	-0.003720623	0.07794387
0.17539616	-0.46574637	0.2114587	0.30330068	0.11352389	0.7617314	0.5495349	0.43864453	0.26791984	0.33369222	-0.5851063	-0.42472416	-0.34571433	-0.45276868	0.5496268	0.377715
0.5413991	0.8485108	-1.0103182	-1.057544	-0.2973801	0.45463967	0.34913716	0.07138587	0.2974842	-0.28317568	-0.43622813	-0.0339863	0.53063184	0.14576024	-1.00381	-0.40619564
0.09456746	-0.10051641	0.18003556	0.25856444	0.12980452	-0.108708166	0.065039106	-0.22582375	0.010727189	-0.22504486	0.13386771	0.19320863	-0.11646797	0.09349677	0.08732887	-0.13965043
0.2857187	-0.4443421	0.57390773	0.6653563	0.5436289	-0.4316404	0.33814552	-0.24111855	-0.30464178	-0.30384943	0.5377579	0.19491088	-0.5587111	-0.4140204	0.32790592	-0.15721115
0.21437016	0.61219925	-0.7909244	-0.8342951	-0.21810895	0.36445686	0.24035504	0.104130864	0.24411993	-0.16858779	-0.29875112	0.012802882	0.3797342	0.12888251	-0.70191145	-0.2533302
0.18426818	0.054870926	-0.039225485	-0.115476266	-0.032438297	0.36968872	0.31965378	-0.5112495	0.6315825	-0.3709546	-0.28435478	0.5210896	0.24611561	0.3297676	0.0070845117	-0.39862645
0.15779315	-1.4002757	1.6685851	1.7527834	0.56547093	-0.9304229	0.06651382	-1.2783263	-0.078874364	-0.74655753	0.65315026	1.1525054	-0.55274475	0.062327538	1.1278523	-0.73173964
-1.1855568	0.052823137	0.6489273	0.25183097	-0.79370993	-0.80393404	-1.3245465	0.1527677	-0.36909553	0.7359643	0.20867607	-0.15328419	0.7054505	0.8731791	0.20169362	0.8726138
0.089621544	-0.8835748	0.9084136	1.0385699	0.3190124	0.28091192	0.3008374	0.090487964	0.18551108	0.16507854	-0.2165357	-0.14567421	-0.46517742	-0.34643123	0.90414137	0.32546398
1.8961619	-1.5395837	1.3584244	1.6167961	1.817209	2.0391507	1.9081812	2.030769	-1.57257	1.6711221	-1.7968228	-1.768839	-1.6456732	-1.8880546	1.7697784	1.8510793
0.20850837	-1.0934831	0.90696055	1.0670332	0.27213758	1.3062916	0.7127482	0.9353222	0.2527911	0.9981648	-0.98199254	-0.88637584	-0.7150101	-0.73181194	1.2624345	1.0709227
-0.39356416	-0.332239	0.67104125	0.5709595	-0.15311907	-0.20220283	-0.37190154	-0.6357436	0.26805472	-0.10666978	0.008011274	0.5677277	0.17438099	0.49853414	0.5075691	-0.06803048
-0.1315224	-0.15267357	-0.0030734134	0.017331174	-0.3087203	0.5724005	0.020424765	0.36859533	0.32781294	0.43717092	-0.52131206	-0.25375938	0.08531094	-0.029635657	0.2613955	0.35897133
-0.13324799	0.14281283	-0.26649567	-0.2346839	-0.26334947	0.23212563	0.0147377085	0.23361826	0.04264361	0.23976955	-0.33671305	-0.25093874	0.22044025	0.011818073	-0.123673916	0.17659219
-0.39354783	-0.32500407	0.2914447	0.31333354	-0.18340524	-0.093950965	-0.35721293	0.72792923	-0.5784312	0.7420605	0.0020224338	-0.76923907	-0.28957754	-0.41515335	0.3178846	0.88986677
0.18002129	0.29053912	-0.327106	-0.3753149	-0.29838344	0.8362367	0.4585187	-0.19618154	0.75983274	-0.17904313	-0.78314936	0.21350557	0.36774883	0.3613597	-0.12262831	-0.3487194
0.31356242	-0.93774676	0.8482089	1.0122095	0.42072546	1.0273594	0.6883382	1.1284978	-0.24544476	1.0758854	-0.6964603	-1.0409805	-0.8442641	-0.89260113	1.084646	1.2301339
0.5152101	-0.8926913	1.0793267	1.1751586	0.9382511	-1.0531931	0.4220017	-0.6527562	-0.82983094	-0.6501293	1.0109365	0.56983924	-0.9452608	-0.6678125	0.5446451	-0.6754848
0.52070016	1.2438487	-1.0697689	-1.2516094	-0.816997	1.0442132	0.5740941	-1.1188383	1.2593027	-0.9993735	-1.0476491	1.043173	1.161485	1.3259501	-1.2276001	-1.1052154
0.9727474	-1.2860676	1.1991638	1.4480088	1.0232847	1.3836887	1.3383462	1.339727	-0.6685292	1.1847043	-0.92326593	-1.3180008	-1.2581648	-1.3296264	1.5083526	1.3447249
-0.6140176	0.47691715	-0.7317895	-0.7553328	-0.4868775	-0.70976657	-0.648113	1.8247019	-1.3710372	1.4541998	0.8273488	-1.656767	-0.15156525	-0.7860417	-0.6289983	1.6435052
-0.08198833	-0.6358495	0.9057373	0.915517	0.28810182	-0.760708	-0.21610938	-0.07294937	-0.5483841	0.012383574	0.545481	-0.046463583	-0.4955745	-0.31043205	0.4842039	0.18642457
0.10231	-0.05020405	-0.16418402	-0.08208864	0.2028025	-0.13938262	0.0064379596	0.4397464	-0.5313428	0.23090315	0.20171727	-0.46853736	-0.35889524	-0.42630067	-0.13798036	0.27792674
0.43132886	-0.7237019	1.1048955	1.107209	0.8844558	-1.3974518	0.14424172	-0.78881675	-1.0508846	-0.72281665	1.263232	0.64337987	-0.9078898	-0.53822625	0.43472335	-0.79298264
-1.3249002	1.5979234	-1.5727285	-1.8090395	-1.4275522	-1.2952043	-1.3821434	1.8480262	-1.5612141	1.356394	1.3907262	-1.6720552	0.9102573	-0.029404175	-1.789619	1.3683925
-0.26365444	0.42764506	-0.3528342	-0.55509233	-0.65845954	0.6755917	-0.06438966	-0.22299081	0.66404176	0.016680434	-0.737697	0.21694824	0.7751037	0.63155496	-0.19003041	-0.055923283
0.061320677	0.86991686	-0.8799369	-0.96279687	-0.39427865	0.10021987	0.011474188	-0.057304382	0.07234709	-0.25077605	-0.16109781	0.17295699	0.56925684	0.427564	-0.9090123	-0.43324873
1.4665973	0.53912944	-1.0004687	-0.8846086	0.15950416	1.4563857	1.4400575	-0.17018165	1.1871048	-0.5585444	-1.384606	0.26336306	0.32317093	0.057477437	-0.6596183	-0.6799261
0.13305692	-0.14268973	0.31712654	0.2697272	0.39214224	-0.681828	-0.054899175	-0.08067469	-0.657461	-0.16194293	0.64590734	0.045780994	-0.49023893	-0.38544208	0.0044305595	-0.12504616
-0.6931451	-1.0460305	1.0687329	1.1776454	-0.49431998	0.16858852	-0.79251873	-1.3052082	1.0072306	0.049317084	-0.42174158	1.2912129	0.6774301	1.1053102	1.0216938	0.13158691
1.2186713	-1.1898643	1.2003974	1.3997691	1.1864009	0.7263181	1.4332218	0.9089391	-1.0309939	0.5612862	-0.13166381	-0.90181005	-1.3677864	-1.290579	1.2766968	0.743811
-0.85706	-1.1429734	1.2927921	1.2856655	-0.67718893	0.4315563	-0.6955495	-0.23526283	0.6609759	0.74994236	-0.69601923	0.16223083	0.41946805	0.56532764	1.2886147	0.8701853
0.058616437	-0.030199938	0.07651106	0.07741575	-0.07286975	0.61319226	0.35498464	-0.48481843	0.7470208	-0.31870213	-0.43491623	0.4808704	0.23777153	0.40359327	0.27060652	-0.40462565
-0.8372275	0.58545125	-0.18214273	-0.52554214	-0.731503	-0.7104844	-0.87493867	0.56646353	-0.5010538	0.5748719	0.29759887	-0.51295483	0.62164176	0.5118342	-0.4333917	0.6273191
0.1529489	1.144598	-1.1067249	-1.2402244	-0.82452416	0.3825532	0.055678666	0.012907888	0.3163582	-0.25588045	-0.512093	0.063037924	0.91951585	0.65468657	-1.1470778	-0.43535277
0.8186732	0.47472104	-0.5414644	-0.55514336	0.20113313	0.85961074	1.0634502	-1.0981389	1.2195492	-1.0137849	-0.44646034	1.0223299	0.44666928	0.5337031	-0.5164815	-1.0275319
0.38704467	-0.12321173	0.14690912	0.2777162	0.5573782	-0.5806965	0.24694198	-0.49432856	-0.3966723	-0.4891843	0.72492373	0.42423797	-0.37760067	-0.31456646	-0.0852169	-0.46845558
-0.4587487	0.6273122	-0.47653097	-0.6412284	-0.60095346	-0.2365172	-0.5673149	0.32114723	-0.22511098	0.23391181	0.09168923	-0.21925189	0.5590219	0.45610157	-0.5068073	0.27087247
-0.729923	-1.8353395	1.7225167	1.9504554	-0.39315152	0.33639905	-0.68895495	-0.90051395	1.242829	0.19650483	-0.46947756	0.7895435	0.36304688	0.87044734	1.6980495	0.37961662
0.11899632	-0.2206196	0.11971448	0.24425931	0.16737984	0.37684208	0.33109197	0.12100992	0.3161136	0.11978325	-0.22247934	-0.11102959	-0.19852829	-0.14696498	0.2390418	0.11194512
0.46297044	-0.8184132	1.218306	1.1847397	0.83000493	-1.4214389	0.14843848	-1.3539497	-0.53656673	-0.96491873	1.1140251	1.2087078	-0.71827006	-0.079336375	0.37578908	-1.1370574
0.736446	0.7941873	-1.1066849	-1.0772489	-0.3113955	0.89232326	0.5605995	0.26345822	0.43999308	-0.24581929	-0.98404884	-0.12976274	0.50846803	0.079283245	-0.94856054	-0.43405744
1.7219676	1.660281	-1.5641195	-1.6566513	-1.3282839	1.7700514	1.8478632	-1.6183884	1.9097215	-1.5424954	-1.7971425	1.4087354	1.460285	1.8168477	-1.6937174	-1.6893456
-0.9094333	-1.732695	1.4242791	1.7209431	-0.7298845	0.54563016	-1.0935733	-1.5391518	1.3632705	0.43325046	-0.6675487	1.4549214	0.8401281	1.1246425	1.3605034	0.5378604
0.841907	-1.1240467	0.9850139	1.139704	0.8840735	1.5423256	1.0962365	1.2794529	-0.46821725	1.2405841	-1.1944488	-1.2243775	-0.9383588	-1.1354667	1.2965188	1.3918734
-0.00950274	-0.13413407	0.21000913	0.1803665	0.0878664	-0.120495215	0.034503546	-0.28817782	0.024833744	-0.18447836	0.12160025	0.2966869	0.00599141	0.14067523	0.08925245	-0.18159896
-0.050982226	0.5669341	-0.2548304	-0.31236735	-0.10384798	-0.3397078	-0.107786216	-0.7842035	0.27513713	-0.57761014	0.29162887	0.74434495	0.45949578	0.801248	-0.51529324	-0.68544936
-0.5482091	-1.197975	1.4890988	1.5050097	-0.12884371	-0.47862032	-0.6755899	-1.0713822	0.4725511	-0.18020406	0.058489088	1.021516	0.16288346	0.8398589	1.1269774	-0.15000714
-0.4148146	-0.455464	0.53836507	0.5276706	-0.13954447	-0.2931	-0.37753227	0.2917874	-0.2809305	0.4736613	0.07573856	-0.32742873	-0.107980736	-0.06295563	0.41417304	0.562382
0.25382632	-0.26047453	0.1699976	0.26964107	0.2372363	0.17719947	0.32046774	-0.2406194	0.23765285	-0.17229493	-0.047623828	0.17784174	-0.1588252	-0.07368209	0.23610443	-0.19890706
-0.070569366	0.45951074	-0.5309079	-0.46384522	-0.141884	-0.4079311	-0.20640992	0.3211923	-0.46419105	0.113758415	0.42156634	-0.22296114	0.08881913	-0.07931674	-0.5911172	0.011095848
1.0299824	-1.3307526	1.5968199	1.5877882	1.2601143	-1.5361049	1.0623239	-1.534309	-0.99746084	-1.3245908	1.338871	1.4310144	-1.250657	-0.66692114	0.8728309	-1.5721064
-0.85151964	-0.45785397	0.8252861	0.6574759	-0.5228876	-0.5910841	-0.9187374	0.029692998	-0.13550481	0.56794137	0.07333518	-0.030136043	0.3362684	0.46851683	0.5639697	0.74177825
-0.59603816	-0.816843	0.9647309	0.87929803	-0.29879403	0.17121957	-0.4269698	-0.31505665	0.48988524	0.33887678	-0.3300872	0.18360831	0.21150507	0.4541057	0.86654043	0.41509816
0.15200654	0.5056376	-0.5008192	-0.5429841	-0.22050768	0.35939163	0.19922708	-0.07997566	0.2916374	-0.1829354	-0.28704435	0.144121	0.34881157	0.28957713	-0.45600086	-0.271142
-1.3901392	-1.1140816	1.3124151	1.3744823	-1.3793873	0.88790655	-1.5191287	-0.7600859	1.2710035	1.3752823	-1.226419	0.6666222	1.4076502	1.5325867	1.333489	1.5878673
1.0969115	-1.2286999	1.5221745	1.5941638	1.3050897	-1.5760262	1.1233175	-1.3903155	-1.3337057	-1.3140274	1.4581012	1.2898751	-1.3342317	-0.840705	0.7960269	-1.4650315
-0.11645361	0.5885216	-0.5491217	-0.67624426	-0.56656075	0.4094171	-0.059173528	0.019646158	0.42293823	0.010547309	-0.54231423	0.08011814	0.65697974	0.49937108	-0.43538174	-0.10056269
-1.0765182	-1.511912	1.42933	1.6015427	-0.9150651	1.036205	-1.1335219	-1.0656642	1.5402471	0.7685542	-1.049494	0.94243485	0.93338794	1.190186	1.5082926	0.89328957
0.36171767	-0.45992103	0.52909833	0.5655716	0.45866078	-0.2987194	0.51512784	-0.5425357	0.04694993	-0.5367225	0.33319914	0.54609066	-0.37733865	-0.13037069	0.30622053	-0.53085685
0.44444153	0.14634861	-0.25455838	-0.17458948	0.34105238	-0.07888664	0.31277356	-0.1623247	-0.13990363	-0.3344232	0.3089788	0.122770004	-0.20182005	-0.19470295	-0.27446213	-0.41176963
1.2709959	-1.577797	1.8666095	1.8636005	1.488115	-2.0797198	1.2250726	-1.9710846	-1.2488909	-1.7182393	1.7223011	1.7854759	-1.5740391	-0.8796499	1.0323386	-1.9320804
0.49740946	0.38621402	-0.43990004	-0.42627978	0.23183468	0.2674183	0.5188226	-0.2957324	0.17250395	-0.44795883	-0.07972925	0.2457815	0.08233374	0.046578195	-0.4798901	-0.51514214
-0.37397045	-0.8338272	0.84314656	0.8462241	-0.059381794	0.21776885	-0.20156057	0.44497827	-0.094388545	0.6745887	-0.2586423	-0.43315178	-0.24978438	-0.25723222	0.8145173	0.8502405
-0.19696444	-0.37342423	0.5168264	0.5121678	0.0132142855	-0.17681684	-0.17934708	-0.37214124	0.12120823	-0.06816308	0.13214928	0.3454983	-0.009179667	0.20278144	0.43136582	-0.041555963
0.13570352	-0.17940533	0.5823474	0.60693	0.53882986	-1.1842144	-0.2071151	-0.43897995	-0.83958936	-0.40643474	1.0156752	0.39752162	-0.52749985	-0.297382	-0.06164219	-0.32446697
1.4033387	-1.2476032	1.4785178	1.5566645	1.4005549	-0.89325947	1.3893214	-0.5339537	-1.5929676	-0.7622883	1.064865	0.49769273	-1.453785	-1.1659673	1.0194002	-0.7106736
0.074311115	0.23217393	-0.2212305	-0.24128707	0.045244493	-0.3410809	-0.12871236	0.11848195	-0.2349579	-0.048444662	0.29493964	-0.06999257	0.010688453	-0.066833735	-0.30755666	-0.09618215
1.6751435	-1.2854387	1.1898389	1.3120999	1.6281782	1.7427762	1.582553	1.611855	-1.6267295	1.4628808	-1.5868642	-1.5080241	-1.2945349	-1.4529983	1.4261335	1.5704715
-0.9512178	0.14416027	0.28005618	-0.008690019	-1.1050987	0.017940901	-1.0178216	-0.03166415	0.32142404	0.6857348	-0.49190077	0.05525681	1.1208446	1.1203213	0.2771246	0.67149377
-0.09232991	0.021514667	0.018052543	0.03219496	-0.103505485	0.0041958434	-0.027893746	-0.31458938	0.2574932	-0.17582157	-0.08882031	0.28543177	0.14276457	0.2630127	-0.0020207188	-0.19228825
-0.46885967	-0.0865014	0.24272637	0.18965262	-0.49190968	0.37832397	-0.28956407	-0.897079	0.8784897	-0.14875081	-0.49139097	0.88025105	0.7150146	0.93973196	0.29734766	-0.16646329
-0.983316	1.0998373	-1.2370996	-1.2715515	-1.0408069	-1.0153704	-0.9547903	1.4003726	-1.192454	1.0126635	1.132384	-1.2346549	0.5520788	-0.14228353	-1.1914989	1.0942938
0.26224735	-0.20365438	0.41663596	0.39750504	0.43214002	-0.63054085	0.073261924	-0.34699667	-0.42432103	-0.36983216	0.5932913	0.27183226	-0.44984567	-0.20747574	0.076051034	-0.34576103
0.24519123	-0.20585115	0.018704576	0.025937723	0.18102147	0.24899836	0.27881292	0.42436466	-0.27115694	0.20175938	-0.102153964	-0.3690613	-0.3311615	-0.44656864	0.19251268	0.18658236
0.056004047	-0.6446448	0.66179717	0.76749486	0.21231538	-0.023160484	0.06054924	0.096287474	-0.21523874	0.18082736	0.15481463	-0.18512733	-0.3764984	-0.3019768	0.5895486	0.29247543
-0.07847267	-1.0751631	1.3178564	1.3189741	0.33174267	-0.6061105	-0.028685668	-1.095784	0.24412626	-0.5565715	0.40014246	0.95825624	-0.29533276	0.27885404	0.9766631	-0.49872324
0.65594184	-0.14988355	0.20736481	0.37597167	0.76317096	-0.53045535	0.5403571	-0.37355322	-0.41958654	-0.52147466	0.60105133	0.34544703	-0.58362484	-0.4958881	0.037006985	-0.56677115
-1.1604396	-0.53253525	0.98314553	0.69524646	-0.79797536	-0.40922508	-1.1868293	0.051113304	-0.033727325	0.7340148	-0.12928055	-0.032038763	0.5571507	0.79246485	0.6287981	0.9499914
0.08276268	0.040013447	-0.16363677	-0.13450478	-0.1476941	0.48037148	0.17203319	0.0035087944	0.4161917	0.03520039	-0.48469758	-0.053393632	0.12439051	0.080349095	-0.015036438	0.04484195
0.22434585	-1.007765	1.13573	1.1456134	0.40825245	0.3748437	0.43982938	0.48201	-0.12841427	0.3938376	-0.06468386	-0.4586912	-0.6764117	-0.6587186	1.0206319	0.55773664
-0.7643468	0.35059628	-0.05396961	-0.302643	-0.9241365	0.23877753	-0.6935436	-0.031558793	0.42784804	0.42598394	-0.568048	0.077200286	0.8753458	0.87474597	-0.020850783	0.3078476
1.0196155	-0.31028697	-0.2025834	0.071095005	0.66654885	0.8848235	1.091392	0.36810026	0.2921791	-0.039824266	-0.5347286	-0.22925965	-0.46173328	-0.62903416	0.19188178	-0.045703024
0.88733727	-0.31361586	0.4349485	0.519546	0.9283862	-0.8392741	0.55441797	-0.518214	-0.59297794	-0.7143397	0.88466644	0.41379747	-0.77131134	-0.5647694	-0.06523495	-0.6871698
0.017339868	-0.9088903	0.910809	0.9935334	0.20243593	0.7744333	0.49287495	-0.016902814	0.6649898	0.29420108	-0.5250088	-0.10084102	-0.35127255	-0.24301432	1.0564889	0.3401789
0.03722409	0.73204154	-0.45591313	-0.64176726	-0.41269946	0.41284865	0.07528734	-0.9214752	0.91801834	-0.67309624	-0.32260612	0.9501872	0.7939569	1.0582151	-0.49931255	-0.75400275
-0.3681087	-0.16349111	0.2602547	0.080010705	-0.5384972	0.6063559	-0.22642107	-0.14269848	0.5916746	0.280581	-0.69579643	0.21276765	0.4558171	0.49492398	0.39677688	0.18053688
-0.57506347	0.35894492	-0.12890013	-0.32442668	-1.2821053	1.6649586	-0.23986913	-1.5246298	1.8941197	-0.1658887	-1.5741503	1.3272135	1.5933698	1.7144308	0.13769983	-0.24508168
0.044608846	-0.35119066	0.28561166	0.40966502	0.1611201	0.13690771	0.18852857	-0.021570472	0.073082246	-0.066906124	-0.059919138	0.022007696	-0.26967078	-0.20443837	0.33718082	0.021069003
-0.11173807	-0.6086118	0.5314625	0.5910242	0.041079346	0.43214056	0.11286341	0.20695055	0.21352887	0.39121997	-0.34451085	-0.20880783	-0.2084889	-0.17874542	0.6665379	0.41297203
-0.31420353	0.52599734	-0.4172306	-0.51703244	-0.5683633	0.036611807	-0.32731184	0.12277079	0.020070918	0.21393733	-0.17976716	-0.13589312	0.6039924	0.46549535	-0.41369396	0.11154666
-0.09315592	-0.5286975	0.94173557	0.87733996	0.2693277	-0.87373394	-0.15124947	-1.289001	0.27387252	-0.7610226	0.5924681	1.2456865	-0.04602027	0.6707258	0.4788955	-0.7825699
-0.9601552	-0.7936661	1.0231626	0.9769826	-0.7002735	0.21108931	-0.9738028	-0.26239598	0.707306	0.67172104	-0.6280157	0.22274047	0.58449423	0.7561172	0.96589684	0.8181641
-0.6825762	-0.7421307	0.8202353	0.82729197	-0.67816156	0.9279161	-0.5230421	-0.18860267	1.1197637	0.6384539	-0.96496373	0.12702657	0.49020976	0.63235956	0.9923628	0.6953093
-1.5343472	-1.6150018	1.6221132	1.7532177	-1.3822925	1.3694241	-1.7076133	-1.5271672	1.8624486	1.1831741	-1.3515718	1.3877777	1.4830219	1.7038007	1.6849339	1.3206033
0.15011086	-0.80741	1.1779194	1.2048666	0.5721624	-0.9292014	0.16965279	-1.0125722	-0.25967968	-0.716423	0.77357316	0.8380843	-0.54726076	-0.053365376	0.6569953	-0.6911069
1.2050196	1.4804963	-1.3979045	-1.5205393	-0.693433	1.121824	0.98937744	-0.95147914	1.2417183	-1.1438946	-1.0638791	1.0146027	1.2440016	1.3682237	-1.6333284	-1.3443696
-0.8665465	-0.57348007	0.9061242	0.793152	-0.6861488	0.112413295	-0.85144836	-0.5482796	0.5975891	0.34245834	-0.4422481	0.4239287	0.6626518	0.8916099	0.7494672	0.4817146
0.08490672	0.1386785	-0.30921334	-0.2870972	-0.0617106	0.22414282	0.056635447	0.24379027	-0.035383064	0.09051667	-0.25596264	-0.17718224	0.0067544123	-0.11330627	-0.17951359	0.077094354
0.5264411	-1.1197853	1.0556931	1.1666483	0.82032466	0.41810977	0.58372486	0.8455125	-0.6975218	0.775848	-0.11707613	-0.8598976	-1.1266612	-1.1575528	1.117684	0.9439895
-1.2683831	-1.6523123	1.2744194	1.7261486	-1.2355624	1.544476	-1.4952437	-1.8386637	1.7106587	1.3026377	-1.2140937	1.7906097	1.3265307	1.4819887	1.3681774	1.595568
0.14414816	-0.5670536	0.7471724	0.84802675	0.38279736	-0.86328995	0.044044077	-0.9671927	-0.035620842	-0.75260186	0.63370943	0.9598521	-0.30690497	0.18344098	0.3361208	-0.7566642
0.12464141	-0.71571535	0.6362962	0.77406055	0.30405268	0.43551263	0.4038834	0.25681534	0.11081928	0.23561999	-0.2761912	-0.24247341	-0.48681232	-0.35418928	0.7565832	0.317436
1.1679205	1.3136905	-1.2063926	-1.4165261	-0.5068893	1.3094833	1.3434902	-1.2982258	1.4928873	-1.2444748	-1.1653962	1.1551694	1.1190534	1.3664215	-1.4292316	-1.3987373
0.88343203	-0.89530736	1.229336	1.2796302	1.1641166	-1.3963407	0.86615324	-1.3947974	-0.70840853	-1.2963322	1.2893652	1.1957284	-1.1076468	-0.554329	0.52118546	-1.3066578
0.0074433032	0.17601444	0.058330964	-0.053649757	-0.086708784	-0.021697128	0.016450634	-1.0146165	0.58507574	-0.5756326	-0.009035911	0.87001944	0.4484867	0.8745573	-0.13870385	-0.6867467
0.57576495	0.57300586	-0.6008334	-0.6309866	0.026608357	0.48382083	0.6591709	-0.74804467	0.7036143	-0.7336126	-0.2307939	0.73472226	0.4428216	0.5286874	-0.61418104	-0.86766815
0.426876	0.5218231	-0.41236952	-0.51718056	0.13379815	0.15406072	0.36355856	-0.6103449	0.42178965	-0.6646406	-0.04932279	0.563171	0.27830583	0.3438797	-0.5850146	-0.76047534
0.2146499	-0.469548	0.4228708	0.49948993	0.34234107	-0.096207224	0.1775601	0.44266772	-0.57299334	0.34341833	0.1151119	-0.4407718	-0.5718402	-0.6367916	0.41757283	0.38710657
0.028954767	-0.369028	0.3846364	0.42687356	0.27565116	-0.31132805	-0.0224584	0.2432605	-0.5039068	0.10780997	0.35390875	-0.24777746	-0.4561536	-0.4437883	0.23559622	0.22146328
-0.09842659	-0.047848936	0.27786973	0.20648566	-0.016912237	-0.12234125	-0.11538176	-0.5417192	0.27469054	-0.28064317	0.09083779	0.52358115	0.10946409	0.38382077	0.13814755	-0.36172453
-0.20828365	-0.79381776	0.9109258	0.96438754	0.14958075	-0.029716855	-0.008715769	-0.010293222	0.033216447	0.20731074	-0.017207475	-0.009114175	-0.34545878	-0.09717143	0.8544608	0.28851053
-0.52321774	0.6178236	-0.5192208	-0.7443073	-0.756471	-0.20125498	-0.5971916	0.57457364	-0.2802771	0.5553743	-0.11669435	-0.4654862	0.59188867	0.3463524	-0.60389954	0.48268563
0.5616498	0.43757147	-0.62177426	-0.5807295	-0.26150155	1.2187321	0.7980369	-0.32739878	0.98219645	-0.358093	-1.1124552	0.37373692	0.44736493	0.34361392	-0.32840276	-0.44214708
0.0021293052	-1.310719	1.3754807	1.5607727	0.18400837	0.93789506	0.39761117	0.43889487	0.4015142	0.7632426	-0.7188075	-0.44281512	-0.539905	-0.43092346	1.4960171	0.8785826
0.3002786	0.09492683	0.066941164	0.103212066	0.33101842	-0.35607335	0.22917455	-0.577556	0.00026196399	-0.5540977	0.348219	0.48006326	-0.07425619	0.107434824	-0.16846938	-0.53047127
-1.289173	1.1050755	-1.3374312	-1.3836212	-1.1135378	-1.409794	-1.268855	1.6795031	-1.6397607	1.3810142	1.5518337	-1.5901362	0.40802956	-0.3779077	-1.2989385	1.507558
-0.3825593	-0.95308656	1.0186466	1.0528625	-0.17691088	0.45721883	-0.11799242	-0.33886853	0.7675064	0.18365175	-0.4906304	0.3037271	0.07266135	0.3256753	1.0913923	0.2743499
0.16517432	-1.1038951	1.4842631	1.4996984	0.6050644	-1.0184205	0.10576552	-1.0699322	-0.31733462	-0.6850351	0.8596009	0.9153321	-0.70319396	-0.051179618	0.93287027	-0.66438156
-0.8882076	-0.27326307	0.56131285	0.36513403	-0.8150208	0.15199004	-0.7978384	-0.22546037	0.38066468	0.51438093	-0.53977835	0.17822605	0.7352558	0.88416874	0.57408553	0.5951417
-0.036809042	0.22039834	-0.06351435	-0.15251556	-0.00074160524	-0.4225911	-0.1390919	-0.215527	-0.11909625	-0.26336327	0.35899794	0.26673767	0.11413921	0.17626163	-0.28396752	-0.25204763
0.23290744	0.64223886	-0.42942846	-0.54743826	-0.094303854	0.21513243	0.2262181	-0.62349355	0.42279136	-0.5289157	-0.15316156	0.68624485	0.47236726	0.5724886	-0.5252588	-0.6804325
0.16088353	-0.513694	0.41470134	0.50819415	0.3886797	0.17028642	0.28612193	0.58962727	-0.3468865	0.47583044	0.008867049	-0.52575874	-0.5958665	-0.6512809	0.47006753	0.54613376
-1.2599552	-1.5832729	1.3208673	1.5964077	-1.2471235	1.5670122	-1.541171	-1.8005209	1.6701878	1.3029404	-1.1649364	1.6952748	1.365307	1.4912567	1.2979482	1.5077716
0.056767263	-0.17396052	0.27572298	0.28119436	0.14139459	0.030350814	0.26733947	-1.0960552	0.59906816	-0.69162214	0.055189688	1.0378078	0.16363642	0.6047679	0.22248462	-0.73778576
0.3781565	0.12314327	-0.3280926	-0.26800868	0.09176037	0.68068606	0.5752423	0.11876876	0.4515457	-0.15922913	-0.43474185	0.012942829	-0.010275422	-0.15952395	-0.1482648	-0.18824905
0.3886226	-0.6991688	0.6711699	0.71383053	0.54555655	0.08843837	0.34708494	0.5213914	-0.47410986	0.40308392	0.12640052	-0.5097476	-0.71642244	-0.7890176	0.69752216	0.56330967
0.10534197	-0.39147672	0.23193805	0.41035166	0.18957168	0.2702385	0.25589317	0.25373408	-0.010963711	0.19836457	-0.22947417	-0.22029471	-0.29146641	-0.26495042	0.4074478	0.19790345
-0.06722274	0.6085294	-0.47832978	-0.60010093	-0.5549517	0.77654284	0.129577	-0.5858487	0.8972622	-0.33725107	-0.7413433	0.5222724	0.82070917	0.8460739	-0.3463595	-0.4317845
0.5998617	-0.7189143	0.16262011	0.5195189	0.5263888	1.0544282	0.74126136	1.1850281	-0.3083225	0.928931	-0.9304595	-1.1352551	-0.8137853	-0.9894154	0.67983663	0.99310017
0.47642782	0.6084123	-0.85116124	-0.86674	-0.414177	1.0652585	0.6225728	-0.18804803	0.9278303	-0.37436655	-1.0585741	0.27669764	0.59427005	0.38626748	-0.6694855	-0.43407196
-0.8176778	0.49564323	-0.49875173	-0.65417606	-0.61507255	-0.7285852	-0.86643034	1.1554366	-1.0059776	1.0122119	0.48607662	-1.0212966	0.14280316	-0.18314765	-0.5555309	1.1172354
-0.44964248	0.22870907	-0.079610854	-0.1754082	-0.6385668	0.26033747	-0.36756676	-0.42794415	0.5370999	-0.06318305	-0.5266948	0.44722563	0.7268485	0.84574246	-0.04848997	-0.043815278
0.11692324	-0.44149086	0.52382505	0.5134552	0.22568661	-0.06649703	0.09542621	0.093483455	-0.2817036	0.10944985	0.18285443	-0.11034192	-0.3754573	-0.37367937	0.4240421	0.20272467
-0.7227677	-0.5856875	0.9261633	0.75586957	-0.32732496	-0.34984642	-0.7235307	0.022341032	-0.095798634	0.5038612	0.046383593	-0.069626845	0.0992293	0.33478615	0.61164063	0.62299687
0.21497506	0.34147096	-0.4148348	-0.36728686	-0.17166229	0.58582777	0.3010949	-0.22504127	0.5702676	-0.2693087	-0.5143612	0.23982863	0.39145395	0.34351227	-0.2692402	-0.27109638
0.33439425	0.14141874	-0.19236942	-0.19222559	0.14918101	0.06750067	0.44285336	-0.44723436	0.3612047	-0.47771427	0.05837081	0.4679793	0.022150442	0.07600566	-0.23774154	-0.5522341
0.69322395	-0.36120003	-0.11718156	0.12126978	0.44479007	0.79650015	0.69266754	0.96840394	-0.30752975	0.60220724	-0.69656396	-0.8219424	-0.62226886	-0.81384313	0.26735985	0.67921025
0.33488256	-0.5487535	0.862634	0.8412998	0.7056436	-1.0198642	0.15169838	-0.25691465	-0.9998938	-0.35508516	0.9393472	0.14745554	-0.85760236	-0.60927665	0.31896588	-0.18190013
0.23105605	-0.04737328	0.059071746	0.114466056	0.4630603	-0.78770804	-0.05663817	0.25892538	-1.0406778	-0.002610057	0.8773959	-0.35292828	-0.6116819	-0.6935021	-0.21449226	0.092217624
0.16738169	0.29359445	-0.15044914	-0.13173811	0.16532108	-0.39136758	0.010733826	-0.36471966	-0.100285485	-0.3786218	0.40165386	0.3654784	0.081234224	0.16650423	-0.31840974	-0.4582103
-0.83692086	-0.17635539	0.49500048	0.28051645	-0.5838334	-0.37195003	-0.8678595	-0.013330807	-0.015285402	0.45992148	-0.11411783	-0.032331575	0.5338485	0.66466796	0.3168149	0.5416526
-1.4384679	-0.43751955	0.8325182	0.54802805	-1.3611141	0.10091135	-1.5312737	0.002448821	0.4634838	1.3201087	-0.765939	-0.04053766	1.2256094	1.1971104	0.70430154	1.4986733
0.2568784	-0.47605652	0.18045408	0.2993875	0.17014153	0.82402384	0.49454206	0.5041505	0.26446724	0.39594215	-0.7517446	-0.4071532	-0.3876158	-0.38285944	0.48450777	0.45717126
0.038682777	-0.4611061	0.35947374	0.41434604	-0.06758071	0.63559467	0.3089207	-0.075359784	0.59574646	0.096826114	-0.5274505	0.033931892	-0.044999804	0.02048103	0.57583284	0.084836505
-0.40305302	-0.41052005	0.41430444	0.3412688	-0.466343	0.68993944	-0.11723665	-0.068683706	0.8101896	0.36267072	-0.650571	0.046939425	0.3088499	0.360069	0.5736887	0.3173363
-0.395393	-0.14590503	0.24944168	0.11597342	-0.40281278	0.3238756	-0.21109755	-0.11067952	0.51755244	0.1633429	-0.4284075	0.13044344	0.2988162	0.3908588	0.35296512	0.18679613
0.15441595	-0.17344752	0.1172924	0.20722766	0.119693995	0.13958581	0.20644872	-0.3423063	0.3299227	-0.21237889	-0.14150265	0.30930984	0.038805984	0.0668162	0.15868576	-0.22716054
-1.7984692	1.7427809	-1.8680316	-1.9694631	-1.591672	-1.7984856	-1.7120302	2.0168009	-1.8510611	1.5948167	2.1062102	-1.8451973	1.2220308	-0.18013984	-1.8285029	1.7828648
-0.012752811	-1.2330426	1.2457577	1.3857518	0.3845568	-0.8606285	0.009528781	-1.3996452	0.24100165	-0.8081007	0.52643776	1.3110728	-0.26228398	0.4609264	0.8893457	-0.85483843
-0.27136365	-0.8003104	0.9682973	0.9579979	0.055408277	-0.19108324	-0.20197617	-0.17847201	-0.08512555	0.21523501	0.10550298	0.091733135	-0.29549384	-0.060622595	0.82231796	0.30847135
1.953466	1.7109079	-1.5931126	-1.7448102	-1.9347485	1.7767105	1.9670712	-1.643372	1.8423371	-1.703489	-1.7837416	1.4715714	1.3921143	1.8324635	-1.8381838	-1.801937
0.006710024	0.036943987	-0.13987383	-0.18713741	-0.29010725	0.49151424	0.12016377	0.018033149	0.35327742	0.095919006	-0.54275376	-0.042539928	0.20777729	0.14014438	-0.029415583	-0.006191386
0.81291103	1.4664744	-1.4255964	-1.6074361	-0.99474853	0.6749111	0.5663499	-0.45697477	0.725998	-0.77764696	-0.77746075	0.51887447	1.2120067	1.254132	-1.6560794	-0.9582877
-0.2186396	0.21680012	-0.25989047	-0.20220056	0.100279324	-0.91248655	-0.4573723	1.1423633	-1.565518	0.85265535	0.95637435	-1.1816188	-0.51612616	-0.93793505	-0.46921396	1.0433764
-0.06755929	-0.31989542	0.4120771	0.39869773	-0.023860186	0.031177517	0.016538737	-0.3734482	0.33958143	-0.11620149	-0.06692791	0.3130004	0.054325297	0.16036421	0.383892	-0.18000793
-0.37791705	-0.022592256	0.09943303	0.05598074	-0.12176977	-0.5780662	-0.5816614	0.5234715	-0.8221134	0.5761806	0.47189456	-0.55496854	-0.1842096	-0.26549026	-0.08241633	0.6084206
-0.37280095	-0.20134875	0.3808999	0.29287148	-0.24071681	-0.19119444	-0.3830061	0.18637691	-0.18391016	0.42994103	0.0056657363	-0.22010238	0.060894016	0.079781465	0.2051122	0.46834844
1.1270384	1.2722709	-1.1280247	-1.2687094	-0.51388526	1.1467245	1.1579984	-1.2980982	1.3909754	-1.2208439	-1.1145277	1.1687266	1.0980077	1.4443365	-1.2624602	-1.386442
-0.7646414	-1.1371541	1.165805	1.2832592	-0.5312522	0.15087253	-0.93387383	-1.3187824	1.0682117	0.18699785	-0.41592667	1.1725677	0.72045594	1.088566	1.0812556	0.24875641
0.13577886	0.86318386	-0.74069375	-0.8101195	-0.5548265	0.7134253	0.28422442	-0.5788216	0.8394603	-0.45122945	-0.650353	0.57872045	0.88071764	0.92848235	-0.74287224	-0.5952457
-0.0106407385	-0.12696737	0.028366584	0.1382182	0.11964318	-0.12246746	-0.016480237	0.4596423	-0.4203018	0.3989664	0.14389202	-0.45236456	-0.2694623	-0.4326294	0.040074892	0.39146316
-0.98299915	0.2369508	-0.054950498	-0.23396732	-0.7545815	-0.5939219	-0.99313086	0.86593294	-0.5997068	1.0376004	0.18584858	-0.7803659	0.34138077	0.116739035	-0.21415307	1.2206056
0.29035255	-0.1573628	-0.04010601	0.020152567	0.21383606	0.28602058	0.36016208	0.19028062	0.034267582	0.10059735	-0.17077406	-0.20368886	-0.23267569	-0.3157002	0.10435244	0.10339559
0.05721479	-0.2741656	0.03182666	0.09226989	0.054944135	0.34138456	0.2113501	0.8251908	-0.35199982	0.60689056	-0.39609152	-0.66540176	-0.3556852	-0.5215517	0.2670837	0.6210222
-0.101458006	0.083851404	0.15206562	0.016957508	-0.29613885	0.20592377	0.024209864	-0.9385043	0.6828702	-0.53400594	-0.2771421	0.88674283	0.4858445	0.7249346	0.048592925	-0.6093932
0.49891376	-1.1424896	1.4080045	1.495721	0.69808745	-1.0616277	0.47390103	-1.1627446	-0.15717226	-0.88492537	0.8268451	1.1083473	-0.7033768	-0.044851083	0.870728	-0.9491127
0.07990335	0.16721699	-0.25774673	-0.22801207	0.01128511	0.13757592	0.047889937	0.019202193	0.022277577	-0.037117284	-0.028041681	-0.003920835	0.12424737	0.06364882	-0.2801912	-0.02097005
0.4367017	-0.42887515	0.33177307	0.48926306	0.417405	0.20973787	0.6376564	-0.32069325	0.29296362	-0.3251642	-0.005610033	0.2116105	-0.39022484	-0.24103008	0.50178176	-0.28897554
1.509473	1.5086669	-1.4373585	-1.5805655	-1.0043314	1.4509884	1.3593454	-0.8996113	1.3909166	-1.1444011	-1.5523463	0.8718479	1.2108445	1.280366	-1.6129665	-1.2732874
0.66389346	-0.39991942	1.0179266	0.8359412	0.86419743	-1.5474279	0.11442531	-0.87370276	-1.1778241	-0.8130791	1.3120544	0.82692426	-1.0484765	-0.99461657	-0.10062415	-1.0035816
0.059912913	0.12814856	-0.11784898	-0.08873383	-0.14126599	0.5070286	0.201917	-0.26552674	0.51794475	-0.19720761	-0.46806824	0.20847078	0.18340325	0.25490937	0.030920919	-0.17650919
-0.09785231	0.27005073	-0.43559068	-0.4168126	-0.2344562	0.0204437	-0.19166964	0.62602466	-0.24527659	0.45140603	-0.039377887	-0.55156827	0.07643445	-0.20687929	-0.25790194	0.4907455
0.20278424	0.3468141	-0.5135176	-0.5372982	-0.20026046	0.4824969	0.20081033	0.19871767	0.29296464	9.786119e-06	-0.48776913	-0.09723721	0.21542062	0.09945378	-0.33485103	-0.09455006
0.13965818	0.8179072	-0.66851515	-0.6876669	-0.26196045	-0.13937248	-0.12681465	-0.23682196	0.03293026	-0.23936062	0.16673252	0.2112369	0.47616878	0.60469013	-0.8395333	-0.339845
-0.1519871	0.13226752	0.17579663	0.100758344	-0.07783854	-0.36729345	-0.2289496	-0.79486203	0.18292046	-0.38482332	0.2626718	0.73658	0.2594144	0.6633253	-0.1195939	-0.5161263
0.36788666	-0.3328398	0.14403556	0.34336963	0.35958531	0.4482691	0.6357601	0.21616817	0.19276986	0.0701725	-0.23701397	-0.19653963	-0.393439	-0.3271313	0.36213124	0.04832388
-0.014743005	0.298855	-0.15998344	-0.2516336	-0.007375886	-0.24434419	-0.10194088	-0.03215212	-0.12231941	-0.0886223	0.19763288	0.037026092	0.016701339	0.049073257	-0.3059954	-0.1769455
0.37077487	-1.0254139	1.3671737	1.377138	0.6796041	-0.9484167	0.3608239	-1.2290894	0.0022595779	-0.9113202	0.70472217	1.0896434	-0.52386427	0.013869219	0.77974844	-0.87648934
0.08864971	0.51261115	-0.3841062	-0.454811	-0.044510067	-0.37957206	-0.13072698	0.24086647	-0.3995366	0.0034010902	0.3338082	-0.17816527	0.046212513	-0.02084521	-0.5526051	0.014062515
0.7004864	0.91504216	-0.8657727	-0.9503527	-0.34889486	0.97626597	0.88027066	-0.8346251	1.1218225	-0.7870732	-0.8726649	0.81815946	0.7861119	0.7905059	-0.8905661	-1.0013777
1.5801064	1.5404844	-1.4497563	-1.5774084	-0.9161073	1.6532702	1.6961685	-1.5686692	1.7876424	-1.5338792	-1.548044	1.4275863	1.2858305	1.6579156	-1.5466818	-1.62328
0.0621627	-0.018304337	0.16594802	0.15101965	0.06898053	0.036165874	0.277623	-0.7294353	0.55513954	-0.49792722	-0.037296645	0.666467	0.06812205	0.36296952	0.1411662	-0.5228601
-0.15798825	0.11758954	-0.077374354	-0.11513051	-0.3977413	0.56731665	0.05152973	-0.1359942	0.56793815	-0.015637793	-0.5236803	0.16391663	0.36616784	0.38227066	0.07493681	-0.051593155
-0.03718357	-0.50805837	0.6246521	0.6745635	0.18703257	-0.25855708	0.038621027	-0.6400625	0.28855237	-0.2927276	0.19626255	0.50611913	-0.16697599	0.192672	0.52314436	-0.33285466
1.25058	-0.9807175	0.8078432	1.0135039	1.2074896	1.1598796	1.1336455	1.0554878	-0.63602865	0.8452325	-1.0546265	-0.9699638	-0.9944762	-1.1012967	1.0752941	0.9200384
-0.21484914	-0.10677687	0.35490453	0.18302353	-0.2724706	0.1894935	-0.063845314	-0.7145945	0.74088806	-0.28343946	-0.2869917	0.6835033	0.39549357	0.60447794	0.3049118	-0.3020061
1.0003098	0.38980153	-0.7018504	-0.6587227	-0.06661641	1.2699301	0.97435945	-0.19987051	0.95319873	-0.37744373	-1.4405162	0.2805005	0.41741177	0.20618998	-0.44323042	-0.519202
-0.09312121	-0.5024781	0.49411082	0.5230201	-0.13469759	0.6065512	0.115627185	-0.13586895	0.6852232	0.10488176	-0.501522	0.18653122	0.006907218	0.07108761	0.6549148	0.17790008
0.25879136	-0.0829782	0.019700887	0.086405136	0.24515948	-0.026549466	0.14332892	0.084413655	-0.20030122	-0.030152908	0.21878718	-0.050226133	-0.22138184	-0.30414534	0.049599558	0.018241081
1.39398	0.73410016	-0.9800189	-0.9079981	0.12031634	1.0466657	1.2864645	-0.23733322	0.77844536	-0.67623544	-0.85255164	0.34264234	0.3826337	0.13155678	-0.8669394	-0.7822491
0.27298954	-0.48640016	0.30285108	0.43960813	0.28906986	0.49843538	0.42577633	0.60604554	-0.043877818	0.52733046	-0.40101823	-0.5757462	-0.45730603	-0.5203295	0.5333093	0.545176
-0.22316289	0.4693054	-0.2721465	-0.45534372	-0.5211235	0.3074467	-0.11285285	-0.35747612	0.50266176	-0.18363568	-0.33083877	0.34250328	0.6754365	0.72124356	-0.2801568	-0.23081645
0.4364512	-0.40283057	0.3072388	0.50392646	0.44725707	0.16316673	0.5801098	-0.066162534	0.20037098	-0.14087883	0.08565376	0.038463175	-0.3806759	-0.31328496	0.4515114	-0.14366195
0.22849162	-0.34498	0.12054959	0.23366092	0.23975058	0.28153044	0.32271022	0.5705371	-0.29373324	0.43879357	-0.1895451	-0.5456979	-0.48996413	-0.5717604	0.2707522	0.43127677
-1.4947904	1.5251004	-1.4596889	-1.5774674	-1.3205588	-1.48934	-1.3345017	1.5760943	-1.4528124	1.2129321	1.6920604	-1.4221703	1.2452632	0.2567584	-1.428287	1.4085492
-0.31664935	-0.15091567	0.34749904	0.24374598	-0.23117675	-0.12575036	-0.380181	-0.091394864	0.06968837	0.16651976	-0.020990666	0.11738841	0.17643286	0.26254252	0.21405362	0.16867381
0.6144357	-0.75532573	0.9582643	0.99108964	0.8367877	-0.82131815	0.61528623	-0.6804701	-0.41962165	-0.7165259	0.80783623	0.565955	-0.8490362	-0.49375603	0.5248389	-0.7099877
-0.8455792	-0.4242584	0.86494315	0.66925865	-0.48769426	-0.47940764	-0.8882434	-0.17403758	-0.016844977	0.4756961	-0.08961207	0.11938106	0.40140012	0.6520919	0.57059443	0.6524061
0.63284856	-0.87493515	1.1906638	1.1778169	0.9354242	-1.2739856	0.33412	-0.7547993	-0.91996986	-0.79210705	1.1334009	0.68168014	-1.0126072	-0.6100817	0.52656054	-0.7205448
0.2394545	0.6628851	-0.508396	-0.67087704	-0.27200487	0.39532825	0.35734516	-0.5969313	0.6614126	-0.5353085	-0.36195493	0.6056552	0.6312456	0.6849014	-0.57986474	-0.719135
-0.079714775	0.2697849	-0.08226494	-0.14648746	-0.19887856	0.19672705	-0.07863175	-0.38731757	0.42236575	-0.21130109	-0.19368732	0.391806	0.37390488	0.5831834	-0.14238961	-0.21738955
0.417415	0.032609556	-0.075919256	0.012044047	0.32308006	-0.0008306878	0.3973921	-0.3946602	0.21261798	-0.49992567	0.0661691	0.38273206	-0.025364408	0.04064246	-0.07299011	-0.48265263
-0.41928223	-0.28150812	0.25797918	0.18733029	-0.6724887	1.0702521	-0.054424208	-0.8630624	1.2855594	-0.15230113	-1.0625533	0.8423058	0.6990072	0.9666731	0.53387815	-0.20083171
-0.38034034	-0.5665857	0.56780696	0.5894826	-0.26728588	0.4705818	-0.15962078	0.20179783	0.33786416	0.46745282	-0.51172924	-0.27020314	0.030147323	0.04544445	0.65187055	0.6171972
-0.17421804	-0.2680121	0.4061062	0.34312484	-0.16134171	0.47980827	0.09962731	-1.005998	1.0450871	-0.38332516	-0.34921134	0.93063956	0.42601755	0.80457824	0.44690454	-0.38751838
-1.047753	-0.7281448	0.9368795	0.86648977	-0.98547983	0.39036894	-1.1866888	-0.5321091	0.7583149	0.89502287	-0.81345385	0.39162564	1.0562533	1.2044799	0.9103623	0.974955
-0.6144428	-0.6713711	0.8621353	0.8182079	-0.32353345	0.013600177	-0.53270274	-0.81879544	0.71749634	-0.032863785	-0.25929818	0.7537164	0.4292039	0.79669076	0.7745081	0.09539384
0.1464229	-0.5421897	0.6813375	0.77576315	0.3561487	-0.43096682	0.08526103	-0.030023789	-0.39181462	-0.05521015	0.42058194	-0.039854895	-0.48196268	-0.35546914	0.46780428	0.061219774
-0.8301319	-0.08114465	0.5058126	0.2949343	-0.64476484	-0.41087162	-0.92215264	-0.07454039	0.011062408	0.48081645	-0.027086528	0.09799645	0.5998469	0.7910608	0.25328976	0.60421693
1.7086251	1.4480332	-1.4057027	-1.5079318	-0.84937674	1.3932698	1.7222348	-1.3236065	1.5019059	-1.4137661	-1.4471952	1.207854	1.1719905	1.4283222	-1.5988264	-1.503133
0.20988365	-0.43087786	0.34873942	0.5104813	0.3167857	0.14455879	0.38759044	-0.22509271	0.23479956	-0.14289784	-0.022893624	0.13961075	-0.3029531	-0.12117785	0.43136162	-0.091494165
-0.3969133	-0.24224268	0.076762185	0.07318854	-0.17445508	0.018482305	-0.3620101	1.518633	-0.97604805	1.4150858	-0.116296306	-1.3742107	-0.50024056	-0.7708307	0.14568543	1.5549164
0.23699635	0.23752692	-0.2718759	-0.24095663	0.0475238	0.16945568	0.30264696	-0.007589935	0.17524806	-0.17112312	-0.073001236	-0.0030102744	0.076521836	-0.07545884	-0.22276269	-0.22669484
0.40547886	-0.64357555	0.67825407	0.70519114	0.61849934	-0.2873928	0.22711495	0.20880137	-0.7115078	0.05060715	0.4899504	-0.18035659	-0.7127198	-0.6680086	0.48893842	0.18623477
0.9985091	-0.87668425	1.1346703	1.172393	1.1464059	-1.1984177	0.95793164	-1.3349472	-0.6677935	-1.2041762	1.1155592	1.2279108	-1.0410125	-0.5319668	0.45675123	-1.3644956
1.2898406	-1.019401	0.72731924	0.9923075	1.2573361	1.5277407	1.2099084	1.5901984	-0.9943066	1.4375815	-1.6529462	-1.389624	-1.1005547	-1.2774233	1.1663353	1.5623474
-0.66536003	0.42460164	-0.103063434	-0.29641733	-0.6951954	-0.19535196	-0.6420071	-0.21364358	0.19741549	0.07997212	-0.073408745	0.24542655	0.82708657	0.8388848	-0.22061108	0.05108704
-0.054633215	-0.2872185	0.22513524	0.31293717	-0.046245426	0.46308836	0.19782877	-0.24185032	0.5453407	-0.04153892	-0.349811	0.22472325	0.06484503	0.16047302	0.32844797	0.022675548
0.54298306	0.7693428	-0.83046824	-0.8340512	0.014754011	0.093707025	0.32737002	-0.09168871	0.07719959	-0.34867883	0.059877675	0.12972042	0.24678513	0.16759212	-0.9368155	-0.50781375
0.10811873	-0.32457653	0.3962565	0.40695474	0.24302214	-0.29728892	0.04270797	-0.023648534	-0.24317499	0.00396178	0.26233825	-0.028530106	-0.34992856	-0.25165522	0.19670226	0.0872683
-0.08562789	-0.49327105	0.38316247	0.4891979	-0.05170448	0.7293673	0.20962054	0.103086896	0.54062027	0.36677045	-0.6656935	-0.050868046	-0.026293818	-0.0013995005	0.65668374	0.34656948
-0.38061336	-0.3103512	0.4335582	0.3789736	-0.33306634	0.31017816	-0.30181703	-0.18768893	0.47959897	0.16656214	-0.4186529	0.19767965	0.24800678	0.37767804	0.44662264	0.2479273
0.61672944	-0.54969686	0.377756	0.5335304	0.7482799	0.2311116	0.4607416	1.1396816	-1.296801	0.846592	0.14638852	-1.0471677	-0.9654108	-1.1741077	0.48795226	0.9596696
0.5409726	-0.91496754	1.1858634	1.2475716	0.77290636	-0.64722216	0.5598473	-0.6401591	-0.52715534	-0.5247907	0.73166776	0.4728379	-0.8135273	-0.5188088	0.8609461	-0.4618452
0.31654721	0.21690503	-0.68304837	-0.5008538	0.047475744	0.29766637	0.15274484	1.1538626	-0.51915216	0.69255465	-0.35236803	-0.9543188	-0.24576749	-0.7163568	-0.35301566	0.5992176
0.742011	-0.74429613	1.001834	1.1267474	0.8569844	-0.9676575	0.7746457	-1.1882125	-0.27032885	-1.0356544	0.9719967	1.0466596	-0.7870808	-0.24079226	0.45421356	-1.1346086
0.688838	-1.0051758	1.3428204	1.3096383	0.96615714	-1.3587135	0.6329011	-1.2920166	-0.69071466	-1.0853279	1.0964861	1.169536	-0.9571577	-0.36531678	0.6940305	-1.1888666
1.193007	-1.037327	0.6958177	0.9496172	1.1844287	1.2206501	1.2657259	1.4473861	-0.91487694	1.1164215	-0.9687227	-1.3292624	-1.1414754	-1.3346901	1.0792133	1.2968699
0.43643788	-0.31911567	0.34216967	0.43683648	0.4647876	-0.18899974	0.48260254	-0.722265	0.3305651	-0.7093695	0.37537482	0.7213895	-0.26924706	0.023296976	0.26776394	-0.757437
-0.057272755	0.057048276	0.21894184	0.17634654	0.16400746	-0.6111508	-0.19389686	-0.36039877	-0.21149066	-0.2739545	0.4645425	0.32566267	-0.00882557	0.13721438	-0.1690506	-0.2824012
0.38841432	-0.22035617	0.41522914	0.44136626	0.5264188	-0.6845321	0.32067174	-1.1078598	0.032039464	-0.8411447	0.7025688	0.9998295	-0.31096792	0.17709795	0.06789828	-0.8918496
-0.013461664	-0.68184745	0.88376135	0.9085245	0.30783898	-0.3376755	0.14299813	-0.4270065	0.05343177	-0.27368742	0.32209653	0.3642232	-0.3458134	-0.09324744	0.71023285	-0.2216086
-0.15503223	0.3217402	-0.27226785	-0.3743108	-0.39479208	0.36709252	-0.040495407	-0.082817174	0.36800817	0.020812983	-0.3941093	0.1066906	0.4465483	0.4158892	-0.19624713	-0.061667122
-1.2264472	-0.47184587	0.8134982	0.6198418	-1.2004585	0.48313507	-1.2962978	-0.24589783	0.8098989	1.0972013	-0.8833222	0.16994	1.1647675	1.1808951	0.86058027	1.1589972
0.76245147	1.079964	-1.1579975	-1.2353896	-0.5865995	0.70650584	0.5006798	-0.24466968	0.5734334	-0.4881228	-0.76557815	0.31683123	0.8354419	0.6238111	-1.2350706	-0.7509215
0.30869004	0.9933307	-0.9664338	-1.0611409	-0.6367475	0.69296783	0.30831024	-0.3463014	0.6559064	-0.42988655	-0.84226424	0.37750316	0.8735591	0.83090526	-0.9493888	-0.60433
0.027191922	1.3301764	-1.110992	-1.3015785	-1.0578433	0.25963363	-0.122246124	-0.12135425	0.36729693	-0.31375527	-0.54301643	0.21958216	1.2190545	1.2890092	-1.2825055	-0.4656969
-0.29608756	-0.17268898	0.33936065	0.35639372	0.04224362	-0.61981475	-0.37792236	-0.32347584	-0.3082653	-0.10063986	0.42659622	0.2692668	-0.037183724	0.19992672	0.10796381	-0.059197858
0.22669242	0.6812081	-0.6369572	-0.66613305	-0.3225249	0.5174116	0.2566613	-0.37797746	0.59808016	-0.33569995	-0.50868815	0.36950862	0.6200153	0.58336914	-0.657559	-0.47437897
0.11522253	-0.030273266	0.15077978	0.15474357	0.05528467	0.21612245	0.23470275	-0.8332859	0.7234321	-0.49141166	-0.1344839	0.6985964	0.20151596	0.4139747	0.17879333	-0.59216404
0.2980382	-0.33322704	0.07623889	0.20364848	0.19359048	0.5686834	0.44239092	0.52435976	-0.023262005	0.39489788	-0.39337164	-0.44560438	-0.32622313	-0.45205435	0.33056805	0.37166917
0.1614856	-0.32993945	0.11363477	0.23218784	0.10959005	0.4455934	0.24511778	0.21573924	0.14491995	0.2156619	-0.31667835	-0.24925244	-0.16360454	-0.18671668	0.23594005	0.2670019
0.1597585	0.2507871	-0.093622796	-0.06985114	0.2236109	-0.5334496	-0.06384792	-0.54564655	-0.25883958	-0.4421274	0.5103497	0.49593726	0.06893168	0.27926266	-0.45220357	-0.4737583
0.25484762	0.49093825	-0.51449126	-0.5362176	-0.3398642	1.0023218	0.6069382	-0.47975087	1.0686584	-0.44170088	-0.9019213	0.4710979	0.6385531	0.5266801	-0.32341677	-0.45678064
0.80906445	-0.9451285	0.9778768	1.1165009	0.8294995	0.042826004	0.9574886	0.22578435	-0.7446525	-0.052330825	0.22986393	-0.25439382	-0.9243597	-0.9166859	0.938334	0.08554535
-0.3459548	0.388557	-0.33812907	-0.51859087	-0.543244	0.06850107	-0.3493423	0.29216647	0.092164524	0.31958342	-0.31365564	-0.20952125	0.53328806	0.27921712	-0.28200698	0.27353632
-1.3352722	-0.7259812	1.0511748	0.95486104	-1.1952578	0.16792056	-1.4903424	-0.628885	0.8008939	0.9931831	-0.7767794	0.5904798	1.3012435	1.4072889	0.9599375	1.1813794
0.4126367	-0.58393395	0.62012255	0.6997056	0.64800674	-0.18855493	0.42831725	-0.2832284	-0.19574004	-0.2976921	0.37894124	0.22378007	-0.62096244	-0.445292	0.49464032	-0.23777167
-0.03700811	-0.69307965	0.68366593	0.7608695	0.08980486	0.5946912	0.24840829	-0.10669997	0.5534687	0.13365123	-0.44921818	0.0522747	-0.14123817	-0.06054402	0.8234084	0.16924542
-1.5183618	-1.3105192	1.3399576	1.4803408	-1.5288079	1.0101304	-1.7307363	-1.2905527	1.5990603	1.2588682	-1.2385858	1.2636037	1.6224381	1.7520874	1.3468559	1.4366307
0.11622966	-0.743287	0.61133665	0.79701835	0.20539783	0.5359587	0.34166375	-0.12349621	0.5121821	0.01243477	-0.30749688	0.03618469	-0.2794602	-0.13693437	0.7832847	0.12347769
0.5836989	0.71088785	-0.8120993	-0.910016	-0.38320708	0.49965993	0.46346033	-0.094409056	0.43584737	-0.4064343	-0.6076154	0.15862118	0.47652063	0.33655423	-0.7916886	-0.4843668
-0.8006648	-0.068465285	0.32320368	0.15130202	-0.6108019	-0.26190546	-0.778243	0.31764352	-0.1526624	0.7544556	-0.13998486	-0.36374965	0.49375325	0.47341025	0.22652449	0.8409707
0.48466915	-0.47759378	0.48109576	0.6091319	0.6296628	-0.32605508	0.35405686	0.10331599	-0.54393995	-0.049453534	0.44119138	-0.069685265	-0.73111194	-0.5802832	0.34753007	-0.009306908
-1.0664556	0.8716135	-1.0503283	-1.0998496	-0.8882245	-1.0677018	-0.9674619	1.1954645	-1.1268964	1.0532802	1.2009822	-1.1822182	0.4648233	-0.11319863	-0.9822511	1.1820239
-0.5575758	-0.5986346	0.7701693	0.7140666	-0.47543767	0.38196138	-0.47640204	-0.5376999	0.70515466	0.31429484	-0.49934536	0.43935266	0.37671962	0.5867417	0.7888685	0.37403804
-0.20425698	-0.29737172	0.2669955	0.32090887	-0.03150689	-0.094984286	-0.09241745	0.53557086	-0.4544026	0.44682688	0.06912659	-0.532353	-0.31119815	-0.36260274	0.24350435	0.60199666
0.059023384	-0.30413923	0.21100104	0.3034975	0.22209644	-0.025331609	0.10052301	0.42510796	-0.35491455	0.3789795	0.11371561	-0.46503899	-0.36653405	-0.39518312	0.25423825	0.499316
-0.29486462	0.6378807	-0.2453756	-0.29457876	-0.15046895	-0.75108737	-0.5375236	-0.3421619	-0.33067065	-0.21708864	0.5893557	0.3398021	0.35369328	0.61427873	-0.59107155	-0.19144793
-1.1714556	-0.63410145	0.8581432	0.73997766	-1.285839	1.3943245	-0.9581738	-0.48748535	1.4924967	1.0088359	-1.4420937	0.37080878	1.1054919	1.1805768	1.0523862	1.0638222
0.47159263	0.3387045	-0.48496512	-0.46154058	0.1281984	0.29391336	0.42197338	0.13570574	0.11474568	-0.13126366	-0.23290217	-0.031456813	0.022462377	-0.092297256	-0.4362246	-0.18124154
1.3979661	-1.1816081	0.97897756	1.0878168	1.2283286	1.4749923	1.438337	1.3881567	-1.3001765	1.264416	-1.2538542	-1.2661908	-1.1869909	-1.3048079	1.2835078	1.3629572
1.452931	0.78087604	-0.9443578	-0.92480934	0.16733666	1.1077337	1.3822246	-0.48887303	0.9801049	-0.88115776	-0.8593483	0.5430381	0.51832134	0.3260242	-0.9240151	-0.93440586
0.6376184	-0.27538306	0.2711077	0.3926522	0.60251975	-0.07275244	0.62497044	-0.3420147	-0.007331673	-0.47267887	0.3134116	0.26026842	-0.48720992	-0.3030099	0.16653356	-0.47159314
-0.18435907	0.6573137	-0.69210565	-0.6760268	-0.27693745	-0.38762426	-0.34219837	0.37426522	-0.5068505	0.12799706	0.44086528	-0.26729643	0.27720279	-0.02142333	-0.7295658	0.08400214
-0.49805376	-0.03340963	0.21449853	0.06441306	-0.5088416	0.1637466	-0.42051777	-0.31923532	0.530721	0.08398218	-0.3690039	0.25801194	0.5318706	0.58173686	0.21280916	0.14852098
-0.15736295	-0.19816977	0.39354214	0.41130936	0.058420856	-0.2610548	-0.19437645	-0.46976134	0.10144338	-0.25593546	0.17207946	0.40362862	0.007633471	0.36854726	0.23443668	-0.17948805
-0.29743034	-0.0064184484	-0.33679605	-0.22015972	-0.1465489	-0.35415512	-0.33474916	1.3968823	-1.1263311	1.0995855	0.39221066	-1.27469	-0.4809635	-0.87206537	-0.25408798	1.2752732
-0.048295345	-0.09675245	0.1791435	0.18413897	0.031676274	-0.28697768	-0.120516635	-0.24272723	-0.09141798	-0.14437263	0.25677368	0.22394308	-0.013141377	0.08893424	0.09780386	-0.12659305
-1.051203	0.399297	0.09666426	-0.26993477	-1.2456975	0.18180063	-1.035795	-0.32419226	0.538035	0.5669644	-0.6769329	0.33523205	1.4136674	1.4440366	0.09556106	0.51570433
0.7605546	-0.6838888	0.38136384	0.5628169	0.67954016	1.0415329	0.8314672	1.2423841	-0.70195955	1.0778365	-0.9251893	-1.1347537	-0.7975191	-1.0576614	0.7397941	1.1605604
0.68787074	-0.09867754	-0.2802894	-0.109005	0.41547802	0.8249943	0.89685494	0.1449597	0.42296657	-0.14039223	-0.5320971	-0.11668669	-0.21004818	-0.3672456	0.08439821	-0.21688125
0.3477314	0.08927232	0.5567507	0.40274352	0.6952253	-1.6029255	-0.2570174	-0.6312955	-1.1958249	-0.63353044	1.408648	0.49616674	-0.72317356	-0.6166363	-0.5818919	-0.6556659
-0.427155	0.51067424	-0.70075023	-0.68348604	-0.41877973	-0.46062288	-0.5105502	1.3928976	-1.0026683	0.9601513	0.5082709	-1.2292094	-0.023521438	-0.47759244	-0.6162038	1.0104641
0.18862653	-0.5847334	0.7660975	0.807636	0.3768193	-0.33342528	0.15766929	-0.5865245	0.040385276	-0.34334746	0.28709644	0.49563685	-0.29132023	-0.051231686	0.51525617	-0.3827561
-0.15778859	-1.0644261	1.1532565	1.2413982	0.04673555	0.03141899	-0.0369229	-0.6721711	0.635134	-0.17133841	-0.03801045	0.6118801	-0.060325723	0.29240265	1.0441699	-0.12250642
-0.05557283	-0.9151226	1.0343789	1.2059393	0.06114851	0.44487983	0.22788617	-0.015671037	0.4848051	0.19607183	-0.25300977	0.0030110897	-0.31825715	-0.14149515	0.99722534	0.31910625
-1.0475751	-0.13990268	0.59516394	0.23413652	-1.0072312	0.045295764	-1.0147166	-0.016609801	0.3200019	0.8806525	-0.578739	-0.0445793	0.82733965	0.8397672	0.4616142	0.9641647
0.30368266	-1.0477573	1.1294628	1.2085	0.5720365	-0.89750427	0.41350707	-1.0687933	-0.14774741	-0.7742434	0.6928658	0.986993	-0.64241534	-0.028431619	0.77420044	-0.897811
0.9865995	1.0672504	-1.0834544	-1.2304417	-0.7403999	1.2829405	1.0856686	-0.8496564	1.2741839	-0.95875007	-1.3387197	0.8803119	1.0004468	1.0475117	-1.1548982	-1.0297393
-0.4616427	-0.23765668	0.26911527	0.19374582	-0.3069819	0.07006921	-0.42432365	0.6139273	-0.17011699	0.78606945	-0.25837222	-0.59009975	-0.016111318	-0.09115979	0.28882906	0.8835845
-0.24747328	-0.2675536	0.37929165	0.39825675	-0.024445992	-0.31926203	-0.32795823	0.027551502	-0.25706327	0.23747413	0.20301539	-0.023788055	-0.09315154	-0.05029477	0.28127328	0.29702866
0.35949937	0.3517555	-0.27558172	-0.26794603	0.15938134	-0.2324788	0.11484485	-0.4920479	0.03180507	-0.5183356	0.2710396	0.47167408	0.1399949	0.22386982	-0.43017069	-0.61561203
-1.015605	-0.94532824	1.008156	1.0523411	-0.96218044	0.84674096	-1.1130543	-1.0762388	1.3377274	0.7080095	-0.89360857	0.96403575	1.0013125	1.1696625	0.9855149	0.86723197
-0.45808265	0.36681026	-0.26431373	-0.40601924	-0.6674	-0.09648837	-0.39791578	0.378093	-0.12807979	0.43674746	-0.20925556	-0.29192558	0.4547063	0.3052005	-0.29104015	0.38957697
-1.6829243	1.6067576	-1.7074708	-1.7129499	-1.4461917	-1.5992354	-1.4491467	1.7414769	-1.5582712	1.3624792	1.8617839	-1.5834502	1.2312119	0.20937535	-1.5829133	1.5753485
1.4839752	-1.3278308	1.126118	1.2451922	1.3707573	1.6264417	1.365221	1.6904867	-1.1685873	1.516892	-1.5778213	-1.5471066	-1.3288375	-1.5147526	1.419592	1.5821332
-0.10674636	0.33412015	-0.20879214	-0.3019927	-0.025117662	-0.5545572	-0.36804402	0.00798231	-0.38702622	-0.08910665	0.51478696	-0.02634841	0.13572542	0.13161273	-0.39382553	-0.035805967
-0.02618218	-0.2717423	0.4314351	0.35785007	0.21430613	-0.31017905	0.012715767	-0.49371094	0.027863	-0.307614	0.20063646	0.4503081	-0.08174454	0.16341586	0.2834998	-0.31557196
-0.19743754	-0.80441326	0.7317833	0.8132868	-0.07721451	0.39778194	0.034660187	-0.31328014	0.6533294	0.06424117	-0.34843716	0.25892532	0.029977266	0.25670308	0.91550106	0.1369203
0.7731282	0.081738934	-0.035623997	0.10080403	0.62012964	-0.050465047	0.9804014	-1.0557803	0.57561713	-1.0409524	0.24842404	1.0468575	-0.17655432	0.20062576	-0.22295193	-1.1113456
-0.3499594	0.19563346	-0.04543909	-0.15450636	-0.09131623	-0.65820086	-0.48340613	0.3537554	-0.6051921	0.28238368	0.4724202	-0.30135894	0.012571571	-0.065614626	-0.2595463	0.3054335
1.1793102	-0.84135425	1.073973	1.0863574	1.186964	-0.19510424	0.99222225	0.05902267	-1.2578951	-0.19651067	0.6245468	-0.08633106	-1.1155468	-0.9700514	0.7124606	-0.06653857
-0.23278405	0.07161569	0.18666218	0.044810094	-0.08195895	-0.40487164	-0.27892533	-0.29044643	-0.12650912	-0.1496257	0.25544992	0.21187393	0.131662	0.3637925	-0.114518985	-0.08825039
-0.981069	-1.1257755	1.2399278	1.3458592	-0.73153955	0.31268027	-1.1396269	-0.68509406	1.0026511	0.6306421	-0.6768974	0.6241791	0.69485897	1.0210997	1.1800467	0.8260023
0.0023736993	0.30373728	-0.11145781	-0.19349329	0.03042129	-0.35911235	-0.09183679	-0.61640984	-0.06284822	-0.37427297	0.28769732	0.6162687	0.26050502	0.5445053	-0.3041445	-0.5133115
-0.8132078	-1.0343963	1.0883584	1.1336145	-0.66041034	1.0003699	-0.5849356	-0.10010758	0.8771147	0.93014044	-0.9564276	0.06800976	0.5048967	0.525038	1.111214	1.1193998
0.30275837	0.16608839	-0.20643069	-0.1806579	0.14386599	0.18157737	0.27549207	-0.075266756	0.13311176	-0.2518458	-0.016393611	0.15208203	-0.007246847	-0.012985498	-0.19777659	-0.2333759
0.37669802	-1.0347388	1.2225014	1.2733698	0.5651113	-0.30412543	0.409842	-0.3498878	-0.23042983	-0.29993218	0.42476535	0.2695341	-0.7364975	-0.41336817	0.9399022	-0.2166573
-0.42757758	-0.33918574	0.7430082	0.6037591	-0.19700187	-0.4649061	-0.5561632	-0.33191922	-0.09866083	0.07866017	0.23010293	0.2202134	0.11995964	0.30613637	0.3597098	0.20520234
-0.324331	-0.24698327	0.53184986	0.5199224	-0.13170666	-0.3324682	-0.46487862	-0.81460774	0.267368	-0.20073904	0.08886241	0.7273064	0.35890368	0.8054998	0.31510007	-0.24899359
-0.012616551	-0.6507674	0.6865615	0.7265928	0.14627913	0.30906484	0.22341321	0.14011829	0.06223722	0.22620657	-0.19444935	-0.2276933	-0.39290535	-0.2598111	0.6816595	0.34102973
0.30605924	-0.2773453	0.116222866	0.16218165	0.3808228	-0.08337691	0.15313134	0.6460383	-0.648076	0.40160343	0.22183868	-0.6547037	-0.5561737	-0.74631256	0.17900841	0.5228626
-0.6148492	0.51096207	-0.33353633	-0.44109818	-0.38924193	-0.8991034	-0.82782155	0.75762093	-0.9707942	0.6856365	0.8286262	-0.6882743	0.099157214	-0.21565387	-0.61197305	0.80825907
0.9047385	-0.9548865	0.94158566	1.0338842	0.91522807	1.1195724	1.0089993	1.0024369	-0.629808	0.9057345	-0.9058318	-0.9673813	-0.9311311	-0.9258849	1.0726147	1.0462426
0.12370803	0.46685314	-0.47516054	-0.5833099	-0.3367153	0.4921191	0.22302032	0.00037998028	0.39370197	-0.05628332	-0.5294779	0.07129471	0.44522348	0.28816676	-0.40203515	-0.1349615
0.21102946	-0.4123615	0.6055211	0.64801824	0.5241145	-0.7869631	0.074119896	-0.30616522	-0.64206576	-0.2857391	0.7391494	0.23145092	-0.5763843	-0.35875285	0.19863263	-0.2989881
0.18043047	0.44444382	-0.31445765	-0.2892132	0.12836385	-0.45521173	-0.106183	-0.2482991	-0.30313388	-0.34099993	0.5467545	0.23375307	0.0784392	0.13803661	-0.5880958	-0.3897453
0.36779037	0.14340545	-0.1368014	-0.1323826	0.24230036	0.08185685	0.38641134	-0.4789193	0.28129634	-0.48521632	0.052469175	0.4464964	0.027099825	0.10894608	-0.14634813	-0.565141
-1.1318316	0.8658225	-0.75714487	-0.9414896	-0.9786612	-1.0939811	-1.1263562	1.3777258	-1.1938149	1.2028042	0.80376726	-1.2440569	0.5590656	0.009813543	-0.8227959	1.3227074
0.20388721	-0.53709614	0.7754167	0.71224844	0.46558458	-0.81494725	0.015757404	-0.77045774	-0.37145078	-0.5791418	0.72832084	0.6971696	-0.4900897	-0.08933586	0.33668557	-0.5648343
1.4640585	-1.1059121	0.992703	1.0802721	1.3060423	1.3466072	1.3812034	1.4053552	-1.1860554	1.1707578	-1.1277702	-1.2620851	-1.2595191	-1.2812072	1.2509629	1.329386
1.211265	-1.0785912	1.3749441	1.3866806	1.2479403	-1.4151131	1.2833002	-1.4030361	-1.219418	-1.26779	1.2289305	1.2630508	-1.1822478	-0.78717464	0.677891	-1.4592252
0.79542863	1.1511317	-1.0850205	-1.1586965	-0.710747	1.3045455	1.017818	-0.94347763	1.3620073	-0.91268057	-1.3422513	0.9606605	1.1052883	1.0931027	-1.0823436	-1.0561373
0.14021467	-0.7130938	0.6762918	0.7546001	0.35066977	0.038690917	0.26039252	-0.168544	0.1714948	-0.0737412	0.04216307	0.081940174	-0.40432146	-0.19241522	0.7060425	0.01691644
-0.9549769	-1.1793791	1.2261883	1.3890877	-0.7386289	0.5226945	-0.97900707	-1.048782	1.1762497	0.46124023	-0.65386033	0.91985404	0.79096	0.98393244	1.1225702	0.5639512
0.97227055	-0.777944	0.6674922	0.8317401	0.8513915	0.3978177	0.9339317	0.54458255	-1.0922165	0.29741612	0.031697366	-0.55088025	-0.85770106	-0.90163887	0.7557472	0.4925754
0.7731522	0.033652864	-0.17556323	-0.070024505	0.5840459	0.044828277	0.61477566	0.0368859	-0.1398711	-0.31782177	0.14043011	0.048884623	-0.3770354	-0.4395897	-0.21119428	-0.32562146
0.07437417	-0.23342273	0.36906996	0.3802951	0.11779929	-0.1273569	0.15658064	-0.6834694	0.3399846	-0.40280107	0.13032037	0.5927921	0.008697607	0.27210057	0.21704622	-0.43602788
0.44128633	-0.1139687	0.10698367	0.23784725	0.42375255	-0.088470556	0.46646562	-0.54927605	0.10812892	-0.4950567	0.28402093	0.46273845	-0.23549333	-0.106856324	0.06703815	-0.5179246
-0.7028185	0.4748558	-0.5364277	-0.64521027	-0.5352714	-0.7952853	-0.7183742	1.1925949	-1.0817494	0.9561547	0.70458466	-1.0422435	0.051839918	-0.33597302	-0.630297	1.0712324
-1.333535	-0.018527575	0.5379176	0.14468138	-1.2392616	-0.30523705	-1.4020693	0.42030752	-0.0373928	1.1855162	-0.47484642	-0.3907344	1.1279637	1.0286486	0.3180809	1.3520964
0.047231544	-0.19108428	0.16693677	0.25476792	0.10995125	0.00886995	0.12742029	-0.093999185	0.16112086	-0.05853228	-0.031477544	0.101862915	-0.14574152	-0.033816017	0.20749342	-0.045430444
0.94175315	-1.1265191	1.0874445	1.0933182	0.9324101	-1.3389084	0.9786289	-1.2150772	-1.3235929	-1.1558236	1.0988827	1.2094141	-0.958297	-1.1256338	0.8477477	-1.32976
0.49942422	-0.6020226	0.45743382	0.5157644	0.6264205	0.33183584	0.42345083	1.240329	-1.0510218	1.0496477	-0.23966151	-1.1688888	-0.868166	-1.1072474	0.5516916	1.1686983
0.15653856	-0.052768424	-0.2241585	-0.1757815	-0.01339455	0.68940777	0.37993664	0.6266185	0.10644396	0.4215013	-0.69559056	-0.5036423	-0.1801438	-0.40406963	0.112695	0.41471338
-0.14352413	0.28787667	-0.004300066	-0.120902576	-0.31339598	0.03087812	-0.19829752	-0.5926079	0.45512986	-0.29639217	-0.16301636	0.58316517	0.5180722	0.77271366	-0.079499856	-0.39253604
-0.2016138	-0.11415756	0.13424775	0.076524764	-0.31172034	0.47482526	-0.054999948	-0.2199491	0.634666	0.10570637	-0.48971635	0.23428027	0.275668	0.403003	0.28855407	0.15383948
-0.31130442	0.40981057	-0.29752344	-0.44931903	-0.69653183	0.38784996	-0.2734738	-0.29495257	0.4972468	-0.023205478	-0.5377656	0.30332363	0.8327011	0.7780147	-0.2710469	-0.10358358
-0.13138038	-0.20840827	0.32358068	0.3433065	-0.1774072	0.33603036	0.035071924	-0.39991504	0.60683674	-0.113146044	-0.27914113	0.30075106	0.17913094	0.2765263	0.3117721	-0.12460277
-0.032633085	0.9084327	-0.89896035	-1.025746	-0.6985582	0.4156087	-0.092220485	0.34937608	0.22961898	0.064855725	-0.6159625	-0.15502188	0.7376945	0.43258592	-0.91157275	-0.11514271
1.3659294	-1.0497804	0.93328243	1.050024	1.2652342	1.4800849	1.279176	1.4216135	-1.0803206	1.2697865	-1.3106532	-1.2860081	-1.1239216	-1.2969998	1.2280825	1.3654608
-0.13368165	-0.9420912	1.0148757	1.1813622	0.12093458	0.02035329	0.1331437	-0.67697126	0.6133488	-0.27226326	-0.06956846	0.6189995	-0.1815815	0.19029361	0.96936214	-0.18879911
-1.313501	1.4252101	-1.5987397	-1.5529902	-1.2491336	-1.3866403	-1.2673393	1.5196676	-1.3710201	1.1121447	1.5975226	-1.3453091	1.2780265	-0.12513772	-1.4583242	1.266167
0.018299554	-0.41428676	0.44373444	0.55998564	0.16269279	0.0071887127	0.1510665	-0.5329251	0.3490964	-0.336501	0.035590913	0.5389865	-0.08507803	0.11148513	0.45699054	-0.32534358
0.7354266	0.74730897	-0.63484013	-0.65707994	0.12583913	0.42305225	0.76605165	-0.9270403	0.74258333	-0.8725515	-0.21759419	0.83989626	0.43041387	0.6433127	-0.8645763	-0.94636726
-0.21289249	-0.050730437	0.39828667	0.31804	0.09825819	-0.732589	-0.28632987	-0.25954366	-0.34150022	-0.1986151	0.5257464	0.23007132	-0.084444284	0.077336065	0.038633335	-0.15608425
-1.2140092	-1.2795931	1.1813496	1.4187949	-1.1917142	1.457654	-1.405847	-1.4750576	1.6074873	1.2616934	-1.1569148	1.4542468	1.2427771	1.3995414	1.1865832	1.4188389
0.12260173	-1.4779469	1.393372	1.5279051	0.58194464	-0.96798396	0.19510563	-1.5252814	0.072224736	-0.8677453	0.63900775	1.454617	-0.49520293	0.23886918	1.1057456	-0.8926983
1.0990825	-0.28047517	0.31660977	0.5142748	1.0269504	-0.6400043	1.0091397	-1.0964123	-0.29659528	-1.1099274	0.88030684	0.9468334	-0.63349396	-0.5225846	-0.0136604	-1.2416283
-0.11397834	-0.35193133	0.4582855	0.42319554	0.17348811	-0.3140425	-0.12903449	0.05576385	-0.26545277	0.08501734	0.30600065	-0.01612622	-0.19690353	-0.1050028	0.28648683	0.18437314
0.14859189	-0.64099777	0.79145974	0.8871029	0.3556425	-0.53878707	0.05388445	-0.5574084	-0.07447339	-0.36319426	0.4409509	0.537844	-0.35769746	0.008629179	0.4880753	-0.3753879
-0.08327841	0.7163781	-0.5123789	-0.62331396	-0.4404459	0.087316364	-0.10415955	-0.2867535	0.26388124	-0.25378403	-0.22067705	0.28822446	0.5667245	0.62070346	-0.5216828	-0.39482734
0.11501721	0.15080543	-0.18541144	-0.29964155	-0.16188295	0.38827366	0.11520985	-0.034736805	0.30834025	-0.05545926	-0.38895467	0.10330242	0.26622334	0.1856387	-0.18819314	-0.17093372
0.03477028	0.4549393	-0.43909922	-0.55154353	-0.19074196	0.16118501	-0.011802156	0.05141301	0.006530273	-0.011584747	-0.10435389	-0.042808924	0.25907165	0.111830905	-0.5049658	-0.11848189
0.7692218	-0.8044537	0.7479124	0.8297243	0.81261736	0.06658113	0.7291262	0.2626192	-0.63125294	0.058506634	0.2453355	-0.34484413	-0.96226573	-0.84895444	0.6743944	0.10087526
0.21873614	-0.9843806	1.057905	1.1314329	0.30705225	1.2203656	0.56860846	0.81346667	0.2276453	0.97085357	-1.0092006	-0.6855309	-0.5578887	-0.6140043	1.1513282	1.1164049
-0.6418897	-0.5088586	0.5496276	0.45443654	-0.6911502	0.8717535	-0.35576567	0.123728864	0.8137525	0.65133446	-0.9542725	-0.10992405	0.44897014	0.38346103	0.73822916	0.64168644
0.34127566	0.50765234	-0.49475265	-0.44597727	0.22246666	-0.36831576	0.08260808	-0.15986966	-0.28123012	-0.45092422	0.46857643	0.19777949	-0.0016039519	0.0060825935	-0.7371449	-0.51030123
0.3442064	-0.33634028	0.22196174	0.36114848	0.45556813	-0.26593378	0.15384024	0.19682278	-0.5415885	0.0012903948	0.40907973	-0.2324125	-0.48935696	-0.48954365	0.17013863	0.09007253
0.20419842	-0.13130826	0.17585324	0.19558832	0.1988279	-0.14504425	0.1381919	-0.26325274	-0.009497735	-0.24641201	0.21060178	0.2550965	-0.11025734	0.002809481	0.08960597	-0.24641846
0.611314	-0.9400973	1.2280381	1.3460921	0.8395501	-1.1670226	0.5333054	-1.2936683	-0.35850012	-1.0115147	0.9696832	1.1478189	-0.8102012	-0.15685898	0.70546246	-1.0941948
0.70398194	0.9799247	-0.9311282	-0.9878822	-0.1910999	0.48354304	0.46604317	-0.42230934	0.5462856	-0.67378974	-0.30655053	0.43051362	0.6617802	0.6018343	-1.0155969	-0.7905948
-0.18368666	0.20584103	-0.24815919	-0.339048	-0.6221061	0.6381652	-0.012741546	-0.26369655	0.7155402	-0.04075098	-0.73726374	0.30693802	0.5711938	0.5794925	-0.06492731	-0.17112926
0.49122834	-0.108679414	0.035981353	0.11624831	0.3971762	0.18086685	0.6634518	-0.25723177	0.20873398	-0.39410612	0.068803094	0.24573767	-0.2514637	-0.15506972	0.11009731	-0.38221598
0.33871335	-0.78477323	0.9094663	0.9515061	0.5756109	0.1140781	0.3720072	0.56160426	-0.58582133	0.4165302	0.1463485	-0.5144026	-0.7580527	-0.7808552	0.7393329	0.61996543
0.8544685	0.5104626	-0.47503933	-0.46723157	0.36807263	0.5161385	1.0261385	-0.9269086	0.8572425	-0.8938705	-0.12801853	0.91668594	0.2819106	0.42783642	-0.5848675	-1.0797793
-1.5728499	1.4979346	-1.6924617	-1.6647283	-1.3485066	-1.5212642	-1.4009537	1.5839355	-1.4399176	1.3238924	1.6674895	-1.4880495	1.3062391	-0.17985411	-1.5224917	1.4659125
-0.36209127	1.3189152	-1.16884	-1.3499576	-1.105008	-0.19756512	-0.45091242	0.31548935	-0.043104358	0.11987513	-0.09400984	-0.10535979	1.2548233	1.210005	-1.3236039	-0.1281099
-0.08000408	0.35911793	-0.21727821	-0.30170974	-0.27823752	0.32151195	-0.05259155	-0.23946306	0.4341357	-0.05438804	-0.33953205	0.1669717	0.3976769	0.43262178	-0.21139407	-0.1854757
1.154274	-0.8303169	0.93360215	1.015898	1.1736742	0.66503257	1.1586312	0.74185586	-1.2147104	0.5287516	-0.22939949	-0.66666895	-0.99902666	-0.9512462	0.853057	0.6114068
-0.6387297	0.40079665	-0.057925273	-0.2760771	-0.647145	-0.42989334	-0.6819544	0.092025295	-0.19019167	0.34547135	0.055709112	-0.027165614	0.6720179	0.65622604	-0.22665238	0.2866282
-0.23011152	0.7874277	-0.9042502	-1.0056292	-0.6981016	0.069833934	-0.2947502	0.5882074	-0.21881722	0.39736038	-0.2661952	-0.5013256	0.5487335	0.2670311	-0.81895244	0.27248082
-0.80296874	0.5468965	-0.5430861	-0.64647883	-0.72259104	-0.6824657	-0.8761992	0.9298418	-0.84074247	0.88504547	0.49525952	-0.9023344	0.3068185	-0.029647803	-0.5684604	0.98664284
1.2185451	1.2282345	-1.148931	-1.337712	-1.0155677	1.2295264	1.331748	-1.1644168	1.3501914	-1.2163496	-1.2670735	1.0278015	1.0776463	1.298843	-1.3393346	-1.2842851
-0.9482554	-1.086306	0.9304188	1.2152808	-0.9674688	1.1423863	-1.190345	-1.1418533	1.2490683	1.0861409	-0.9376795	1.0949473	1.0448264	1.1488093	1.030417	1.2282965
-0.008067221	-0.5672474	0.6556908	0.7217761	0.19483092	0.005557597	0.091869585	-0.05875126	0.053202108	0.12342096	-0.041372504	-0.04541766	-0.33145204	-0.20511112	0.67060256	0.15869087
0.25988767	-0.15853621	0.39437932	0.38026506	0.4043306	-0.5358924	0.24976858	-0.7577808	-0.07557789	-0.7105104	0.58264005	0.720915	-0.2810879	0.048155766	0.15887007	-0.7330745
-0.14971152	0.571096	-0.37524837	-0.45289484	0.1065363	-1.1251075	-0.4916769	0.32375938	-1.1137336	0.08431363	1.0811058	-0.37598917	-0.23498818	-0.33802614	-0.86423314	0.15537949
-0.09574222	-0.2076054	0.02135465	0.08917353	-0.123610914	0.30310366	-0.07420974	0.6135276	-0.10753655	0.55030864	-0.30042955	-0.55468774	-0.077478774	-0.29072237	0.18681946	0.52897185
-0.2580804	0.18386286	-0.192545	-0.20440644	-0.32029665	-0.22767635	-0.33013427	0.46348423	-0.32323232	0.43276528	0.013676475	-0.3629058	0.15384005	-0.0029412964	-0.20634124	0.44599015
